{"learner":{"attributes":{"best_iteration":"206","best_score":"0.4675783739362314","scikit_learn":"{\"_estimator_type\": \"regressor\"}"},"feature_names":[],"feature_types":[],"gradient_booster":{"model":{"cats":{"enc":[],"feature_segments":[],"sorted_idx":[]},"gbtree_model_param":{"num_parallel_tree":"1","num_trees":"227"},"iteration_indptr":[0,1,2,3,4,5,6,7,8,9,10,11,12,13,14,15,16,17,18,19,20,21,22,23,24,25,26,27,28,29,30,31,32,33,34,35,36,37,38,39,40,41,42,43,44,45,46,47,48,49,50,51,52,53,54,55,56,57,58,59,60,61,62,63,64,65,66,67,68,69,70,71,72,73,74,75,76,77,78,79,80,81,82,83,84,85,86,87,88,89,90,91,92,93,94,95,96,97,98,99,100,101,102,103,104,105,106,107,108,109,110,111,112,113,114,115,116,117,118,119,120,121,122,123,124,125,126,127,128,129,130,131,132,133,134,135,136,137,138,139,140,141,142,143,144,145,146,147,148,149,150,151,152,153,154,155,156,157,158,159,160,161,162,163,164,165,166,167,168,169,170,171,172,173,174,175,176,177,178,179,180,181,182,183,184,185,186,187,188,189,190,191,192,193,194,195,196,197,198,199,200,201,202,203,204,205,206,207,208,209,210,211,212,213,214,215,216,217,218,219,220,221,222,223,224,225,226,227],"tree_info":[0,0,0,0,0,0,0,0,0,0,0,0,0,0,0,0,0,0,0,0,0,0,0,0,0,0,0,0,0,0,0,0,0,0,0,0,0,0,0,0,0,0,0,0,0,0,0,0,0,0,0,0,0,0,0,0,0,0,0,0,0,0,0,0,0,0,0,0,0,0,0,0,0,0,0,0,0,0,0,0,0,0,0,0,0,0,0,0,0,0,0,0,0,0,0,0,0,0,0,0,0,0,0,0,0,0,0,0,0,0,0,0,0,0,0,0,0,0,0,0,0,0,0,0,0,0,0,0,0,0,0,0,0,0,0,0,0,0,0,0,0,0,0,0,0,0,0,0,0,0,0,0,0,0,0,0,0,0,0,0,0,0,0,0,0,0,0,0,0,0,0,0,0,0,0,0,0,0,0,0,0,0,0,0,0,0,0,0,0,0,0,0,0,0,0,0,0,0,0,0,0,0,0,0,0,0,0,0,0,0,0,0,0,0,0,0,0,0,0,0,0,0,0,0,0,0,0],"trees":[{"base_weights":[2.6963247E-4,-1.2956924E-2,2.025831E-2,-3.354234E-2,-7.0475074E-3,1.06099425E-2,4.1215476E-2,-2.6383478E-2,-6.2220894E-2,-4.423306E-2,-5.297662E-3,-3.4120341E-3,1.7354969E-2,3.3562575E-2,7.354657E-2,-2.9015306E-2,3.567739E-2,-6.692483E-2,1.1944796E-1,1.4149393E-2,-5.7370823E-2,4.8888596E-3,-1.1883958E-2,2.5194468E-2,-1.7705254E-2,2.153099E-2,-2.448742E-2,2.0961136E-2,5.8257833E-2,1.0020949E-1,4.2988043E-2,-2.261725E-2,-5.801921E-2,7.395089E-3,1.6390981E-1,-1.3365479E-1,-5.721038E-2,-1.7409645E-2,3.178783E-1,1.3991418E-1,-1.2316885E-2,-6.1778568E-2,1.297424E-1,2.1710448E-2,-4.026154E-3,-8.72302E-3,-6.0450867E-2,3.6856994E-2,-6.198256E-2,6.854644E-3,-2.8318664E-2,2.4714129E-2,-1.7369315E-2,-9.78706E-2,-9.688736E-3,4.0448282E-2,5.692101E-3,6.436708E-2,-3.1024767E-2,2.087906E-1,7.894505E-2,-6.973928E-2,5.3252634E-2,-1.3847894E-4,-6.159321E-4,-5.577401E-4,-1.7209165E-3,-1.1048145E-4,2.6311788E-3,6.248436E-3,7.370262E-4,-4.3355827E-3,-1.4432127E-3,3.7761747E-5,-1.00958E-3,-3.6058677E-3,1.4253397E-3,6.692767E-3,2.8935E-4,-3.0347004E-3,3.237765E-3,9.0270936E-5,-2.723397E-3,-1.1007879E-3,3.0460977E-4,4.0800553E-3,-0E0,2.9030218E-4,1.971736E-3,4.432506E-3,-7.860683E-5,1.8982342E-6,-2.854611E-4,-0E0,-1.3691533E-3,6.4372877E-4,-2.259206E-3,-0E0,-2.0384656E-3,1.9931837E-4,-2.733986E-3,-2.4940497E-3,-3.9675416E-4,5.975348E-4,2.2142699E-4,9.5338054E-4,-8.2985277E-4,-2.0987007E-3,5.972597E-4,1.5489051E-4,-8.591639E-4,7.494939E-4,-7.646032E-4,-4.509525E-4,3.2379467E-4,1.1171523E-3,-0E0,-1.5638532E-3,1.5468271E-3,3.9014635E-3,-1.7038443E-4,5.9938803E-4,1.7410344E-3,1.8292612E-3,-2.2132273E-3,1.3798765E-3,3.5967195E-4],"categories":[],"categories_nodes":[],"categories_segments":[],"categories_sizes":[],"default_left":[0,0,0,0,0,0,0,0,0,0,0,0,0,0,0,0,0,0,0,0,0,0,0,0,0,0,0,0,0,0,0,0,0,0,0,0,0,0,0,0,0,0,0,0,0,0,0,0,0,0,0,0,0,0,0,0,0,0,0,0,0,0,0,0,0,0,0,0,0,0,0,0,0,0,0,0,0,0,0,0,0,0,0,0,0,0,0,0,0,0,0,0,0,0,0,0,0,0,0,0,0,0,0,0,0,0,0,0,0,0,0,0,0,0,0,0,0,0,0,0,0,0,0,0,0,0,0],"id":0,"left_children":[1,3,5,7,9,11,13,15,17,19,21,23,25,27,29,31,33,35,37,39,41,43,45,47,49,51,53,55,57,59,61,63,65,67,69,71,73,75,77,79,81,83,85,87,89,91,93,95,97,99,101,103,105,107,109,111,113,115,117,119,121,123,125,-1,-1,-1,-1,-1,-1,-1,-1,-1,-1,-1,-1,-1,-1,-1,-1,-1,-1,-1,-1,-1,-1,-1,-1,-1,-1,-1,-1,-1,-1,-1,-1,-1,-1,-1,-1,-1,-1,-1,-1,-1,-1,-1,-1,-1,-1,-1,-1,-1,-1,-1,-1,-1,-1,-1,-1,-1,-1,-1,-1,-1,-1,-1,-1],"loss_changes":[3.4912506E1,9.605972E0,1.0569284E1,3.5086308E0,3.9522018E0,3.4297137E0,3.9511585E0,2.3056402E0,2.9139128E0,2.1596093E0,3.96799E0,4.753953E0,4.2625957E0,4.06798E0,2.3631535E0,2.4196053E0,1.7898054E0,1.9578266E0,2.5978577E0,1.7832689E0,1.7708464E0,3.4862401E0,5.421867E0,3.8821373E0,2.0615923E0,2.7623615E0,2.2326975E0,2.5913045E0,2.495963E0,3.4287167E0,1.6942458E0,2.4872646E0,2.615408E0,1.2791551E0,1.9214058E0,1.9899759E0,1.3098812E0,1.188042E0,5.997057E-1,2.0480857E0,1.3572975E0,1.5204086E0,9.206518E-1,2.5424626E0,3.7733858E0,2.8288085E0,3.5802321E0,2.3294158E0,1.9903401E0,2.2102349E0,1.9894714E0,2.8306093E0,4.5283847E0,1.8166044E0,1.6660033E0,2.460321E0,2.5583706E0,1.8719482E0,2.418498E0,2.5342474E0,1.5985899E0,1.5190727E0,1.2852702E0,0E0,0E0,0E0,0E0,0E0,0E0,0E0,0E0,0E0,0E0,0E0,0E0,0E0,0E0,0E0,0E0,0E0,0E0,0E0,0E0,0E0,0E0,0E0,0E0,0E0,0E0,0E0,0E0,0E0,0E0,0E0,0E0,0E0,0E0,0E0,0E0,0E0,0E0,0E0,0E0,0E0,0E0,0E0,0E0,0E0,0E0,0E0,0E0,0E0,0E0,0E0,0E0,0E0,0E0,0E0,0E0,0E0,0E0,0E0,0E0,0E0,0E0,0E0,0E0],"parents":[2147483647,0,0,1,1,2,2,3,3,4,4,5,5,6,6,7,7,8,8,9,9,10,10,11,11,12,12,13,13,14,14,15,15,16,16,17,17,18,18,19,19,20,20,21,21,22,22,23,23,24,24,25,25,26,26,27,27,28,28,29,29,30,30,31,31,32,32,33,33,34,34,35,35,36,36,37,37,38,38,39,39,40,40,41,41,42,42,43,43,44,44,45,45,46,46,47,47,48,48,49,49,50,50,51,51,52,52,53,53,54,54,55,55,56,56,57,57,58,58,59,59,60,60,61,61,62,62],"right_children":[2,4,6,8,10,12,14,16,18,20,22,24,26,28,30,32,34,36,38,40,42,44,46,48,50,52,54,56,58,60,62,64,66,68,70,72,74,76,78,80,82,84,86,88,90,92,94,96,98,100,102,104,106,108,110,112,114,116,118,120,122,124,126,-1,-1,-1,-1,-1,-1,-1,-1,-1,-1,-1,-1,-1,-1,-1,-1,-1,-1,-1,-1,-1,-1,-1,-1,-1,-1,-1,-1,-1,-1,-1,-1,-1,-1,-1,-1,-1,-1,-1,-1,-1,-1,-1,-1,-1,-1,-1,-1,-1,-1,-1,-1,-1,-1,-1,-1,-1,-1,-1,-1,-1,-1,-1,-1],"split_conditions":[2.113957E-1,-4.140552E-1,1.0690007E0,2.236155E2,-1.543927E0,1.9546404E-2,2.1249716E0,9.838258E-1,1.78803E3,1.1E0,3.2441148E-1,3.3333334E-1,1.6461538E0,1.2819549E0,5E0,-7.1911424E-2,1.25E0,-9.572873E-1,5.9975363E-2,1.5E-1,8E-1,-1.0703635E2,4.0853658E-1,1.9155502E0,-5.185243E-1,5.9995424E-2,1.298085E3,1.9224768E2,2.25E0,1.47574E3,1.46985E3,2.2153978E-1,8E0,6.666667E-1,2.5E-1,7.5E-1,3.3333334E-1,2.7094001E3,1.6666666E0,2E-1,5.9983276E-2,2.25E0,5.555556E-1,6.4449626E-1,6.666667E-1,3.3333334E-1,1.5E-1,2.1E0,4.559195E-1,4.2666035E3,8.333333E-1,2.2695035E-1,1.1111111E-1,1.5700935E0,3.3213297E-1,2.1111112E0,2.7094001E3,1.9104984E3,7.5292945E-1,2.25E0,6E0,1.9040384E2,5.555556E-1,-1.3847894E-4,-6.159321E-4,-5.577401E-4,-1.7209165E-3,-1.1048145E-4,2.6311788E-3,6.248436E-3,7.370262E-4,-4.3355827E-3,-1.4432127E-3,3.7761747E-5,-1.00958E-3,-3.6058677E-3,1.4253397E-3,6.692767E-3,2.8935E-4,-3.0347004E-3,3.237765E-3,9.0270936E-5,-2.723397E-3,-1.1007879E-3,3.0460977E-4,4.0800553E-3,-0E0,2.9030218E-4,1.971736E-3,4.432506E-3,-7.860683E-5,1.8982342E-6,-2.854611E-4,-0E0,-1.3691533E-3,6.4372877E-4,-2.259206E-3,-0E0,-2.0384656E-3,1.9931837E-4,-2.733986E-3,-2.4940497E-3,-3.9675416E-4,5.975348E-4,2.2142699E-4,9.5338054E-4,-8.2985277E-4,-2.0987007E-3,5.972597E-4,1.5489051E-4,-8.591639E-4,7.494939E-4,-7.646032E-4,-4.509525E-4,3.2379467E-4,1.1171523E-3,-0E0,-1.5638532E-3,1.5468271E-3,3.9014635E-3,-1.7038443E-4,5.9938803E-4,1.7410344E-3,1.8292612E-3,-2.2132273E-3,1.3798765E-3,3.5967195E-4],"split_indices":[116,102,116,77,104,102,116,103,117,22,108,32,45,47,50,67,34,104,78,97,2,80,67,81,107,78,75,77,5,117,117,107,56,12,13,36,8,96,4,2,78,5,18,111,46,51,97,21,122,95,47,67,18,44,107,23,96,117,104,6,54,77,30,0,0,0,0,0,0,0,0,0,0,0,0,0,0,0,0,0,0,0,0,0,0,0,0,0,0,0,0,0,0,0,0,0,0,0,0,0,0,0,0,0,0,0,0,0,0,0,0,0,0,0,0,0,0,0,0,0,0,0,0,0,0,0,0],"split_type":[0,0,0,0,0,0,0,0,0,0,0,0,0,0,0,0,0,0,0,0,0,0,0,0,0,0,0,0,0,0,0,0,0,0,0,0,0,0,0,0,0,0,0,0,0,0,0,0,0,0,0,0,0,0,0,0,0,0,0,0,0,0,0,0,0,0,0,0,0,0,0,0,0,0,0,0,0,0,0,0,0,0,0,0,0,0,0,0,0,0,0,0,0,0,0,0,0,0,0,0,0,0,0,0,0,0,0,0,0,0,0,0,0,0,0,0,0,0,0,0,0,0,0,0,0,0,0],"sum_hessian":[1.32017E5,7.9407E4,5.261E4,1.7661E4,6.1746E4,3.6068E4,1.6542E4,1.417E4,3.491E3,2.741E3,5.9005E4,1.1651E4,2.4417E4,1.3409E4,3.133E3,1.3614E4,5.56E2,3.41E3,8.1E1,4.85E2,2.256E3,2.3091E4,3.5914E4,3.851E3,7.8E3,2.223E4,2.187E3,8.914E3,4.495E3,1.65E3,1.483E3,1.1191E4,2.423E3,4.64E2,9.2E1,4.16E2,2.994E3,4.4E1,3.7E1,9.3E1,3.92E2,2.211E3,4.5E1,8.05E3,1.5041E4,3.3745E4,2.169E3,3.41E3,4.41E2,2.316E3,5.484E3,2.058E4,1.65E3,3.52E2,1.835E3,3.878E3,5.036E3,4.221E3,2.74E2,2.6E2,1.39E3,1.13E2,1.37E3,6.13E3,5.061E3,1.699E3,7.24E2,4.18E2,4.6E1,2.7E1,6.5E1,8.8E1,3.28E2,2.9E2,2.704E3,1.9E1,2.5E1,2.4E1,1.3E1,1.2E1,8.1E1,3.45E2,4.7E1,2.025E3,1.86E2,2.5E1,2E1,7.815E3,2.35E2,4.6E1,1.4995E4,1.7314E4,1.6431E4,6.46E2,1.523E3,3.343E3,6.7E1,2.21E2,2.2E2,2.251E3,6.5E1,1.19E2,5.365E3,9.13E3,1.145E4,5.03E2,1.147E3,2.87E2,6.5E1,1.258E3,5.77E2,3.604E3,2.74E2,1.495E3,3.541E3,3.849E3,3.72E2,1.86E2,8.8E1,2.26E2,3.4E1,6.24E2,7.66E2,2.6E1,8.7E1,6.23E2,7.47E2],"tree_param":{"num_deleted":"0","num_feature":"123","num_nodes":"127","size_leaf_vector":"1"}},{"base_weights":[-2.9921666E-4,2.2578225E-2,-7.992539E-3,7.6458655E-2,1.954015E-2,-2.7513998E-2,-2.8841172E-3,-6.6360617E-3,1.02367036E-1,-1.4934591E-2,2.4803527E-2,-2.0752313E-2,-5.1608082E-2,1.4624772E-2,-9.152343E-3,-3.9901543E-2,1.0135509E-1,1.1037009E-1,-5.891505E-2,4.436752E-2,-2.4967793E-2,1.1825203E-1,2.2933228E-2,-1.1471937E-2,-3.80587E-2,-1.8973658E-2,-6.7638E-2,1.8430268E-2,-2.5514724E-2,-2.4794124E-2,-4.193242E-3,-8.774214E-2,8.6472936E-2,1.4266057E-1,-4.5391347E-4,1.3031107E-1,4.0185045E-2,3.1475447E-2,-2.14026E-1,8.2459666E-2,-6.1042834E-2,-1.930195E-2,-1.4949958E-1,7.285042E-2,2.1967511E-1,2.9771378E-2,3.3781503E-3,-2.2391092E-2,7.707008E-3,-7.7452585E-2,-2.6376383E-2,-3.2442253E-2,7.692507E-2,-7.429769E-2,8.56729E-3,1.2329607E-1,1.6842145E-2,-0E0,-9.7087614E-2,-2.830795E-2,3.3898097E-2,-1.6997881E-2,1.4506707E-3,-2.946355E-3,-2.2451963E-5,2.3867658E-3,-2.704834E-3,2.8544893E-3,-0E0,-1.743461E-4,2.197864E-3,-8.7765115E-4,1.512035E-3,-1.4220093E-3,2.49642E-3,-0E0,-5.4664533E-3,1.6418633E-4,2.1469155E-3,1.6423097E-4,-2.853009E-3,2.0253481E-3,-3.6893509E-4,-0E0,-3.1399154E-3,2.1955357E-3,-0E0,-0E0,4.26797E-3,3.555767E-4,8.245534E-4,-2.3293459E-4,5.2860175E-4,-1.0599361E-3,-2.1039069E-4,9.556861E-4,-8.060807E-5,-2.8835759E-3,-7.8571064E-4,6.584563E-4,-5.119942E-4,-7.1166817E-4,6.9405127E-4,2.333426E-5,3.4859416E-3,-1.6829821E-3,-7.485432E-4,1.254531E-3,-1.5916488E-3,-1.2928601E-4,3.0581567E-3,2.5490823E-5,3.8581074E-4,1.1114094E-3,-3.8036713E-4,2.442445E-3,-1.8689488E-3,-3.5425276E-4,-1.1394246E-3,-9.4781833E-4,9.737338E-4,4.4933968E-4,-3.488193E-4,1.5616998E-4,-1.1182325E-4],"categories":[],"categories_nodes":[],"categories_segments":[],"categories_sizes":[],"default_left":[0,0,0,0,0,0,0,0,0,0,0,0,0,0,0,0,0,0,0,0,0,0,0,0,0,0,0,0,0,0,0,0,0,0,0,0,0,0,0,0,0,0,0,0,0,0,0,0,0,0,0,0,0,0,0,0,0,0,0,0,0,0,0,0,0,0,0,0,0,0,0,0,0,0,0,0,0,0,0,0,0,0,0,0,0,0,0,0,0,0,0,0,0,0,0,0,0,0,0,0,0,0,0,0,0,0,0,0,0,0,0,0,0,0,0,0,0,0,0,0,0,0,0,0,0],"id":1,"left_children":[1,3,5,7,9,11,13,15,17,19,21,23,25,27,29,31,33,35,37,39,41,43,45,47,49,51,53,55,57,59,61,63,65,67,-1,69,71,73,75,77,79,81,83,85,87,89,91,93,95,97,99,101,103,105,107,109,111,113,115,117,119,121,123,-1,-1,-1,-1,-1,-1,-1,-1,-1,-1,-1,-1,-1,-1,-1,-1,-1,-1,-1,-1,-1,-1,-1,-1,-1,-1,-1,-1,-1,-1,-1,-1,-1,-1,-1,-1,-1,-1,-1,-1,-1,-1,-1,-1,-1,-1,-1,-1,-1,-1,-1,-1,-1,-1,-1,-1,-1,-1,-1,-1,-1,-1],"loss_changes":[2.3311558E1,5.3265324E0,9.8566675E0,3.9049797E0,5.7399225E0,3.24891E0,8.631489E0,1.373723E0,1.8107338E0,2.4417815E0,4.604452E0,2.5160933E0,2.2164297E0,3.1518106E0,4.462048E0,1.9305327E0,6.13215E-1,1.5853481E0,1.0270725E0,2.3613887E0,2.2926803E0,2.02561E0,3.5518808E0,2.2210479E0,2.4218159E0,1.872175E0,1.5897169E0,2.9676213E0,3.1419182E0,2.8596916E0,3.208762E0,1.7993804E0,1.3176086E0,5.505357E-1,0E0,1.4642868E0,1.6643908E0,5.546689E-1,4.9635124E-1,1.4967628E0,1.4704325E0,1.945038E0,1.0508745E0,1.955612E0,1.7937865E0,3.130001E0,3.871871E0,2.6284828E0,2.634232E0,3.3198562E0,1.790293E0,1.2907546E0,1.5788658E0,2.182599E0,1.7015021E0,2.761804E0,2.1392212E0,2.190646E0,2.4258852E0,3.2400885E0,2.0087895E0,3.1705234E0,2.214241E0,0E0,0E0,0E0,0E0,0E0,0E0,0E0,0E0,0E0,0E0,0E0,0E0,0E0,0E0,0E0,0E0,0E0,0E0,0E0,0E0,0E0,0E0,0E0,0E0,0E0,0E0,0E0,0E0,0E0,0E0,0E0,0E0,0E0,0E0,0E0,0E0,0E0,0E0,0E0,0E0,0E0,0E0,0E0,0E0,0E0,0E0,0E0,0E0,0E0,0E0,0E0,0E0,0E0,0E0,0E0,0E0,0E0,0E0,0E0,0E0,0E0,0E0],"parents":[2147483647,0,0,1,1,2,2,3,3,4,4,5,5,6,6,7,7,8,8,9,9,10,10,11,11,12,12,13,13,14,14,15,15,16,16,17,17,18,18,19,19,20,20,21,21,22,22,23,23,24,24,25,25,26,26,27,27,28,28,29,29,30,30,31,31,32,32,33,33,35,35,36,36,37,37,38,38,39,39,40,40,41,41,42,42,43,43,44,44,45,45,46,46,47,47,48,48,49,49,50,50,51,51,52,52,53,53,54,54,55,55,56,56,57,57,58,58,59,59,60,60,61,61,62,62],"right_children":[2,4,6,8,10,12,14,16,18,20,22,24,26,28,30,32,34,36,38,40,42,44,46,48,50,52,54,56,58,60,62,64,66,68,-1,70,72,74,76,78,80,82,84,86,88,90,92,94,96,98,100,102,104,106,108,110,112,114,116,118,120,122,124,-1,-1,-1,-1,-1,-1,-1,-1,-1,-1,-1,-1,-1,-1,-1,-1,-1,-1,-1,-1,-1,-1,-1,-1,-1,-1,-1,-1,-1,-1,-1,-1,-1,-1,-1,-1,-1,-1,-1,-1,-1,-1,-1,-1,-1,-1,-1,-1,-1,-1,-1,-1,-1,-1,-1,-1,-1,-1,-1,-1,-1,-1],"split_conditions":[2.6403368E-1,-1.4962498E0,-4.030593E-1,5.997314E-2,-1.8566312E-1,2.2148363E2,-8.41502E-2,3.5722E2,8.3081126E-1,-2.2466928E2,1.3333334E0,1.1075269E0,0E0,2.4139328E2,-3.2348207E-1,3.304766E-1,1.9E1,-2.87556E-1,1.8333334E0,2.1494492E2,9.123561E-1,8E0,3.1235158E-1,-6.61511E-1,2E-1,2.3082637E2,3E0,1.2079108E3,2.7777777E0,2.5E0,2.5564628E-2,3E0,1.5555556E0,1.2E1,-4.5391347E-4,2.857143E-1,1.1E0,5.999072E-2,6.0005836E-2,8.849519E-2,6.5E-1,-1.326576E0,-4.021739E-1,4.2857143E-1,3E0,1.3483146E0,1.0580202E0,-2.493334E-1,-1.0909091E-1,2E-1,-1.35E0,1.6959176E3,5.555556E-1,-9.338623E-2,5E0,3.3333334E-1,-8.9354E-1,-1.5081218E-1,-5.714286E-1,1.75E0,2E-1,1.2981387E3,8.3614194E-1,-2.946355E-3,-2.2451963E-5,2.3867658E-3,-2.704834E-3,2.8544893E-3,-0E0,-1.743461E-4,2.197864E-3,-8.7765115E-4,1.512035E-3,-1.4220093E-3,2.49642E-3,-0E0,-5.4664533E-3,1.6418633E-4,2.1469155E-3,1.6423097E-4,-2.853009E-3,2.0253481E-3,-3.6893509E-4,-0E0,-3.1399154E-3,2.1955357E-3,-0E0,-0E0,4.26797E-3,3.555767E-4,8.245534E-4,-2.3293459E-4,5.2860175E-4,-1.0599361E-3,-2.1039069E-4,9.556861E-4,-8.060807E-5,-2.8835759E-3,-7.8571064E-4,6.584563E-4,-5.119942E-4,-7.1166817E-4,6.9405127E-4,2.333426E-5,3.4859416E-3,-1.6829821E-3,-7.485432E-4,1.254531E-3,-1.5916488E-3,-1.2928601E-4,3.0581567E-3,2.5490823E-5,3.8581074E-4,1.1114094E-3,-3.8036713E-4,2.442445E-3,-1.8689488E-3,-3.5425276E-4,-1.1394246E-3,-9.4781833E-4,9.737338E-4,4.4933968E-4,-3.488193E-4,1.5616998E-4,-1.1182325E-4],"split_indices":[113,108,102,79,102,77,107,119,109,80,53,42,99,76,110,122,72,107,23,76,109,57,108,102,35,80,106,74,53,9,102,53,21,54,0,29,21,79,79,103,64,107,49,16,54,47,103,109,61,2,63,120,29,103,50,24,110,102,48,34,2,74,107,0,0,0,0,0,0,0,0,0,0,0,0,0,0,0,0,0,0,0,0,0,0,0,0,0,0,0,0,0,0,0,0,0,0,0,0,0,0,0,0,0,0,0,0,0,0,0,0,0,0,0,0,0,0,0,0,0,0,0,0,0,0],"split_type":[0,0,0,0,0,0,0,0,0,0,0,0,0,0,0,0,0,0,0,0,0,0,0,0,0,0,0,0,0,0,0,0,0,0,0,0,0,0,0,0,0,0,0,0,0,0,0,0,0,0,0,0,0,0,0,0,0,0,0,0,0,0,0,0,0,0,0,0,0,0,0,0,0,0,0,0,0,0,0,0,0,0,0,0,0,0,0,0,0,0,0,0,0,0,0,0,0,0,0,0,0,0,0,0,0,0,0,0,0,0,0,0,0,0,0,0,0,0,0,0,0,0,0,0,0],"sum_hessian":[1.32559E5,3.3316E4,9.9243E4,1.755E3,3.1561E4,2.053E4,7.8713E4,4.05E2,1.35E3,4.147E3,2.7414E4,1.6074E4,4.456E3,2.0695E4,5.8018E4,3.19E2,8.6E1,1.294E3,5.6E1,5.81E2,3.566E3,5.24E2,2.689E4,1.0513E4,5.561E3,1.495E3,2.961E3,1.8933E4,1.762E3,1.3902E4,4.4116E4,2.39E2,8E1,7.3E1,1.3E1,9.93E2,3.01E2,3E1,2.6E1,4.36E2,1.45E2,3.421E3,1.45E2,3.71E2,1.53E2,1.9873E4,7.017E3,6.743E3,3.77E3,1.246E3,4.315E3,1.323E3,1.72E2,2.739E3,2.22E2,2.7E2,1.8663E4,1.307E3,4.55E2,1.3138E4,7.64E2,1.3568E4,3.0548E4,1.04E2,1.35E2,6.8E1,1.2E1,6.2E1,1.1E1,5.2E1,9.41E2,1.02E2,1.99E2,1E1,2E1,1.2E1,1.4E1,1.97E2,2.39E2,8.4E1,6.1E1,8.4E1,3.337E3,3.7E1,1.08E2,2.02E2,1.69E2,2.8E1,1.25E2,1.5113E4,4.76E3,4.353E3,2.664E3,1.105E3,5.638E3,7.55E2,3.015E3,2.48E2,9.98E2,3.38E2,3.977E3,1.149E3,1.74E2,1.19E2,5.3E1,1.214E3,1.525E3,1.42E2,8E1,8.8E1,1.82E2,6.3E3,1.2363E4,3.25E2,9.82E2,3.1E1,4.24E2,1.1631E4,1.507E3,1.64E2,6E2,1.352E3,1.2216E4,1.5429E4,1.5119E4],"tree_param":{"num_deleted":"0","num_feature":"123","num_nodes":"125","size_leaf_vector":"1"}},{"base_weights":[-1.1537138E-3,-1.8359791E-2,1.7690055E-2,-5.3488072E-2,-1.5015254E-2,1.1949761E-2,4.2299524E-2,-7.29897E-2,-3.3107214E-2,-3.2681126E-2,-1.0612958E-2,1.0640217E-2,7.5500615E-2,1.7465571E-2,5.484128E-2,-1.0359562E-1,-5.3993363E-2,-4.4519804E-2,2.2777531E-2,1.4904245E-2,-3.8889892E-2,-1.8165834E-2,3.0844074E-3,1.3833097E-2,-1.2188488E-2,-4.66044E-2,9.220963E-2,7.0337854E-2,1.7296064E-3,3.522243E-2,7.3841356E-2,4.8548705E-3,-1.08432665E-1,-1.1138881E-1,-3.8485065E-2,4.5438665E-3,-4.707866E-2,5.2590188E-2,-9.302047E-2,2.6649654E-2,-9.8117866E-2,-1.1835203E-2,-4.682223E-2,-1.3939102E-2,-3.402753E-2,3.532347E-2,-4.287348E-3,1.940305E-2,-2.1066447E-4,-6.2151654E-3,-8.932486E-2,6.621314E-2,-1.3197473E-1,7.091521E-2,1.9640595E-1,1.4557481E-1,3.008519E-2,-2.7163252E-2,2.6268398E-2,-2.1756008E-2,5.0599385E-2,-1.835329E-2,8.029783E-2,-1.1025312E-3,-2.4243437E-3,-2.542094E-3,9.107319E-4,5.591804E-4,-8.690237E-4,-1.5998823E-3,-5.25253E-4,2.127364E-3,-1.668821E-4,-3.2518026E-3,-0E0,3.1593132E-5,1.3670732E-3,-2.4055378E-3,1.1690354E-3,1.2467917E-3,-4.9214106E-4,-9.999799E-4,-4.7500973E-4,2.1512016E-4,-2.8568465E-4,-1.1739095E-3,-3.0262957E-4,6.1030226E-4,-2.0838222E-3,-3.9490886E-4,6.485959E-5,2.3157643E-4,7.955746E-4,-3.717569E-4,1.4078169E-4,-4.7916156E-4,2.125799E-4,1.0215314E-3,-1.903454E-3,-0E0,4.6384907E-3,-3.6824688E-3,-0E0,1.2367975E-3,-2.9017895E-3,4.552361E-3,-0E0,-6.86591E-4,2.541366E-3,-3.0663817E-3,8.962631E-4,-6.863632E-4,8.1324496E-4,5.736908E-4,-7.036838E-4,1.8668436E-3,-8.239168E-4,-3.0654203E-4,9.2376943E-4,1.1353628E-4,-3.2266567E-3,9.989446E-4,1.8400396E-3],"categories":[],"categories_nodes":[],"categories_segments":[],"categories_sizes":[],"default_left":[0,0,0,0,0,0,0,0,0,0,0,0,0,0,0,0,0,0,0,0,0,0,0,0,0,0,0,0,0,0,0,0,0,0,0,0,0,0,0,0,0,0,0,0,0,0,0,0,0,0,0,0,0,0,0,0,0,0,0,0,0,0,0,0,0,0,0,0,0,0,0,0,0,0,0,0,0,0,0,0,0,0,0,0,0,0,0,0,0,0,0,0,0,0,0,0,0,0,0,0,0,0,0,0,0,0,0,0,0,0,0,0,0,0,0,0,0,0,0,0,0,0,0],"id":2,"left_children":[1,3,5,7,9,11,13,15,17,19,21,23,25,27,29,31,33,35,37,39,41,43,45,47,49,51,53,55,57,59,61,-1,63,65,67,-1,69,71,73,75,77,79,81,83,85,87,89,91,93,95,97,99,101,103,105,107,109,111,113,115,117,119,121,-1,-1,-1,-1,-1,-1,-1,-1,-1,-1,-1,-1,-1,-1,-1,-1,-1,-1,-1,-1,-1,-1,-1,-1,-1,-1,-1,-1,-1,-1,-1,-1,-1,-1,-1,-1,-1,-1,-1,-1,-1,-1,-1,-1,-1,-1,-1,-1,-1,-1,-1,-1,-1,-1,-1,-1,-1,-1,-1,-1],"loss_changes":[4.307742E1,8.072866E0,8.880915E0,2.2467155E0,4.8794136E0,4.1663036E0,3.6240902E0,1.5565109E0,1.9230349E0,3.7552633E0,5.283207E0,3.6768231E0,2.1374364E0,3.2684078E0,2.800438E0,1.9990616E0,1.4928179E0,1.7990451E0,1.617529E0,1.8038064E0,2.320179E0,2.1392221E0,4.323682E0,3.4890366E0,2.700337E0,1.175669E0,1.6540723E0,2.5173955E0,2.2215424E0,3.4736056E0,2.4505157E0,0E0,1.6718445E0,3.4026666E0,1.8949368E0,0E0,1.670506E0,2.2177339E0,9.691223E-1,1.8180721E0,1.2709154E0,4.4767585E0,2.264656E0,3.0184731E0,3.9840088E0,1.8185463E0,2.58384E0,4.559883E0,2.695596E0,2.7465322E0,2.1393044E0,9.445491E-1,1.1687272E0,1.3383482E0,2.669776E0,1.065383E0,3.4519086E0,1.8189646E0,1.2278583E0,3.4050603E0,1.8026433E0,1.4390477E0,2.0618134E0,0E0,0E0,0E0,0E0,0E0,0E0,0E0,0E0,0E0,0E0,0E0,0E0,0E0,0E0,0E0,0E0,0E0,0E0,0E0,0E0,0E0,0E0,0E0,0E0,0E0,0E0,0E0,0E0,0E0,0E0,0E0,0E0,0E0,0E0,0E0,0E0,0E0,0E0,0E0,0E0,0E0,0E0,0E0,0E0,0E0,0E0,0E0,0E0,0E0,0E0,0E0,0E0,0E0,0E0,0E0,0E0,0E0,0E0,0E0,0E0],"parents":[2147483647,0,0,1,1,2,2,3,3,4,4,5,5,6,6,7,7,8,8,9,9,10,10,11,11,12,12,13,13,14,14,15,15,16,16,17,17,18,18,19,19,20,20,21,21,22,22,23,23,24,24,25,25,26,26,27,27,28,28,29,29,30,30,32,32,33,33,34,34,36,36,37,37,38,38,39,39,40,40,41,41,42,42,43,43,44,44,45,45,46,46,47,47,48,48,49,49,50,50,51,51,52,52,53,53,54,54,55,55,56,56,57,57,58,58,59,59,60,60,61,61,62,62],"right_children":[2,4,6,8,10,12,14,16,18,20,22,24,26,28,30,32,34,36,38,40,42,44,46,48,50,52,54,56,58,60,62,-1,64,66,68,-1,70,72,74,76,78,80,82,84,86,88,90,92,94,96,98,100,102,104,106,108,110,112,114,116,118,120,122,-1,-1,-1,-1,-1,-1,-1,-1,-1,-1,-1,-1,-1,-1,-1,-1,-1,-1,-1,-1,-1,-1,-1,-1,-1,-1,-1,-1,-1,-1,-1,-1,-1,-1,-1,-1,-1,-1,-1,-1,-1,-1,-1,-1,-1,-1,-1,-1,-1,-1,-1,-1,-1,-1,-1,-1,-1,-1,-1,-1],"split_conditions":[4.9544167E-2,-1.391698E0,1.4789016E0,6E-1,3.2283464E-1,5.416667E-1,5.992256E-2,-6.70464E-1,1.14617065E-1,-3.1578946E-1,4.404994E-1,2.302341E2,1.5681799E3,1.14E2,6.4449626E-1,8.5714287E-1,1.4739666E3,1.3373102E3,9E0,2.6060605E-1,1E0,2.1823763E2,-2.392246E2,2.8982586E-1,5.07E2,2.9976398E-1,2.1527332E-1,1.680122E3,5.348973E-1,3.1E1,-2.060606E-1,4.8548705E-3,5.9982967E-2,2.7777777E0,-1.2845616E0,4.5438665E-3,1.4809795E3,2E2,1.68E2,1.375E0,3.1360948E-1,-1.1921984E0,1.47258E3,8E-1,8.372093E-2,3.3395177E-1,5.9913907E-2,1.5238096E0,4.9229655E-1,2.654885E-1,-3.015E1,2.2222222E-1,2.0350685E2,6.5E-1,2.2758449E2,8.6E-1,2.5E-1,4.533741E3,1.8333334E0,8.6E-1,5E-1,1.6666666E0,1.2840909E0,-1.1025312E-3,-2.4243437E-3,-2.542094E-3,9.107319E-4,5.591804E-4,-8.690237E-4,-1.5998823E-3,-5.25253E-4,2.127364E-3,-1.668821E-4,-3.2518026E-3,-0E0,3.1593132E-5,1.3670732E-3,-2.4055378E-3,1.1690354E-3,1.2467917E-3,-4.9214106E-4,-9.999799E-4,-4.7500973E-4,2.1512016E-4,-2.8568465E-4,-1.1739095E-3,-3.0262957E-4,6.1030226E-4,-2.0838222E-3,-3.9490886E-4,6.485959E-5,2.3157643E-4,7.955746E-4,-3.717569E-4,1.4078169E-4,-4.7916156E-4,2.125799E-4,1.0215314E-3,-1.903454E-3,-0E0,4.6384907E-3,-3.6824688E-3,-0E0,1.2367975E-3,-2.9017895E-3,4.552361E-3,-0E0,-6.86591E-4,2.541366E-3,-3.0663817E-3,8.962631E-4,-6.863632E-4,8.1324496E-4,5.736908E-4,-7.036838E-4,1.8668436E-3,-8.239168E-4,-3.0654203E-4,9.2376943E-4,1.1353628E-4,-3.2266567E-3,9.989446E-4,1.8400396E-3],"split_indices":[115,104,115,15,41,41,78,103,103,67,111,76,75,39,111,53,118,120,57,68,33,76,80,66,58,122,67,117,104,39,61,0,78,53,109,0,120,39,39,25,41,109,120,24,49,67,79,45,115,103,119,19,76,97,76,44,0,95,25,44,9,36,47,0,0,0,0,0,0,0,0,0,0,0,0,0,0,0,0,0,0,0,0,0,0,0,0,0,0,0,0,0,0,0,0,0,0,0,0,0,0,0,0,0,0,0,0,0,0,0,0,0,0,0,0,0,0,0,0,0,0,0,0],"split_type":[0,0,0,0,0,0,0,0,0,0,0,0,0,0,0,0,0,0,0,0,0,0,0,0,0,0,0,0,0,0,0,0,0,0,0,0,0,0,0,0,0,0,0,0,0,0,0,0,0,0,0,0,0,0,0,0,0,0,0,0,0,0,0,0,0,0,0,0,0,0,0,0,0,0,0,0,0,0,0,0,0,0,0,0,0,0,0,0,0,0,0,0,0,0,0,0,0,0,0,0,0,0,0,0,0,0,0,0,0,0,0,0,0,0,0,0,0,0,0,0,0,0,0],"sum_hessian":[1.32859E5,6.9484E4,6.3375E4,6.006E3,6.3478E4,5.1432E4,1.1943E4,3.036E3,2.97E3,1.2603E4,5.0875E4,5.0414E4,1.018E3,4.043E3,7.9E3,1.136E3,1.9E3,2.486E3,4.84E2,1.43E3,1.1173E4,3.2855E4,1.802E4,4.4279E4,6.135E3,1.13E2,9.05E2,9.08E2,3.135E3,3.921E3,3.979E3,1E1,1.126E3,3.86E2,1.514E3,1.5E1,2.471E3,3.94E2,9E1,1.306E3,1.24E2,2.571E3,8.602E3,2.6008E4,6.847E3,3.387E3,1.4633E4,3.1772E4,1.2507E4,5.71E3,4.25E2,4.2E1,7.1E1,7.62E2,1.43E2,3.05E2,6.03E2,1.415E3,1.72E3,8.15E2,3.106E3,2.47E2,3.732E3,6.26E2,5E2,3.04E2,8.2E1,2.64E2,1.25E3,4.78E2,1.993E3,1.8E2,2.14E2,4.1E1,4.9E1,9.42E2,3.64E2,1E2,2.4E1,4.4E2,2.131E3,4.262E3,4.34E3,3.392E3,2.2616E4,1.81E3,5.037E3,3.327E3,6E1,4.259E3,1.0374E4,2.7637E4,4.135E3,3.557E3,8.95E3,2.593E3,3.117E3,6.5E1,3.6E2,2.9E1,1.3E1,4.4E1,2.7E1,7.45E2,1.7E1,9.8E1,4.5E1,1.7E1,2.88E2,5.9E1,5.44E2,1.185E3,2.3E2,1.521E3,1.99E2,1.38E2,6.77E2,3.03E2,2.803E3,2.11E2,3.6E1,2.577E3,1.155E3],"tree_param":{"num_deleted":"0","num_feature":"123","num_nodes":"123","size_leaf_vector":"1"}},{"base_weights":[-6.232867E-4,-1.3449261E-2,2.0701434E-2,-2.6834836E-2,-7.14472E-3,1.3313746E-2,4.675838E-2,-1.2459438E-2,-3.6635336E-2,1.281478E-2,-1.0969128E-2,-1.7534897E-2,1.6942756E-2,3.7943095E-2,7.786478E-2,-5.066031E-3,-4.7365785E-2,-3.1065624E-2,-7.9031765E-2,-9.866665E-2,1.6459415E-2,-1.8191803E-2,1.7133955E-3,-3.395479E-2,1.321112E-2,1.8683901E-2,-4.1019604E-2,2.6855737E-2,7.7708796E-2,2.1281643E-1,7.173249E-2,-6.0469113E-2,-9.64442E-5,-0E0,-7.266511E-2,-6.0562175E-2,-2.515588E-2,-1.203585E-1,-5.1792335E-2,-1.462809E-1,1.1503219E-2,-2.0570857E-2,2.3831677E-2,-7.6774426E-2,-1.6378315E-2,-5.044874E-3,3.9907165E-2,-2.0516405E-2,-1.05056494E-1,-6.2024E-2,4.4280533E-2,6.3724625E-3,2.6386743E-2,1.12406865E-1,-5.9381768E-2,2.1754232E-1,2.5137724E-2,2.5800835E-2,1.0376995E-1,-0E0,2.8749624E-1,4.7312133E-2,1.0382238E-1,-6.328408E-4,-2.6366904E-3,-2.0660023E-4,2.531903E-4,5.130559E-4,-1.8339467E-3,-1.5549756E-3,-4.145275E-4,-1.4693654E-3,-1.9357253E-4,1.0526236E-3,-4.2759857E-4,-2.0502056E-3,2.237903E-3,-1.2134244E-3,2.9683276E-4,-2.5243292E-4,-2.870298E-3,3.316581E-3,-3.890521E-4,-3.3819688E-5,-1.0504109E-3,-3.3163294E-4,4.8773212E-4,-1.6194849E-3,2.6848842E-4,1.8309567E-3,-2.6982074E-4,-2.295619E-4,1.2414981E-4,-1.4943198E-3,7.672765E-4,-4.35669E-4,1.603563E-3,-2.1541629E-3,1.2230173E-3,3.9223835E-4,-2.4825113E-3,1.1343713E-3,-2.2891283E-4,3.1847204E-4,-2.7753774E-4,3.8447639E-4,1.4564483E-3,-0E0,3.1279747E-3,-1.212542E-4,-1.7408459E-3,5.5915713E-3,-0E0,1.0487265E-4,6.9452875E-4,5.573571E-4,-3.5728305E-3,2.4751127E-3,1.2331333E-3,-2.8792606E-3,1.2113701E-3,-0E0,5.3347657E-3,-2.0771583E-3,8.7271363E-4,1.0476704E-3,2.4362092E-3],"categories":[],"categories_nodes":[],"categories_segments":[],"categories_sizes":[],"default_left":[0,0,0,0,0,0,0,0,0,0,0,0,0,0,0,0,0,0,0,0,0,0,0,0,0,0,0,0,0,0,0,0,0,0,0,0,0,0,0,0,0,0,0,0,0,0,0,0,0,0,0,0,0,0,0,0,0,0,0,0,0,0,0,0,0,0,0,0,0,0,0,0,0,0,0,0,0,0,0,0,0,0,0,0,0,0,0,0,0,0,0,0,0,0,0,0,0,0,0,0,0,0,0,0,0,0,0,0,0,0,0,0,0,0,0,0,0,0,0,0,0,0,0,0,0,0,0],"id":3,"left_children":[1,3,5,7,9,11,13,15,17,19,21,23,25,27,29,31,33,35,37,39,41,43,45,47,49,51,53,55,57,59,61,63,65,67,69,71,73,75,77,79,81,83,85,87,89,91,93,95,97,99,101,103,105,107,109,111,113,115,117,119,121,123,125,-1,-1,-1,-1,-1,-1,-1,-1,-1,-1,-1,-1,-1,-1,-1,-1,-1,-1,-1,-1,-1,-1,-1,-1,-1,-1,-1,-1,-1,-1,-1,-1,-1,-1,-1,-1,-1,-1,-1,-1,-1,-1,-1,-1,-1,-1,-1,-1,-1,-1,-1,-1,-1,-1,-1,-1,-1,-1,-1,-1,-1,-1,-1,-1],"loss_changes":[3.6164066E1,6.9276657E0,9.47488E0,3.6527271E0,4.2902393E0,4.332697E0,2.8421955E0,2.70546E0,3.5464935E0,3.54275E0,4.3498983E0,2.0650258E0,3.4696875E0,3.6290655E0,1.5919838E0,2.3714013E0,2.1744533E0,2.3004894E0,1.7848892E0,1.610532E0,2.3832233E0,3.0820456E0,4.454378E0,2.3744645E0,3.1953602E0,3.1510057E0,2.7162468E0,1.8763294E0,2.3135777E0,1.7770486E0,1.5905685E0,1.2679718E0,1.7209277E0,2.5150557E0,1.2798595E0,3.452053E0,2.0660067E0,1.7612734E0,2.0329518E0,6.692424E-1,7.793859E-1,1.1128023E0,2.3489547E0,2.273024E0,2.7860403E0,1.7925209E0,3.0200925E0,1.8692183E0,2.4356084E0,3.4159307E0,1.6860439E0,4.3317432E0,2.545394E0,1.207047E0,2.1983793E0,1.5254264E0,2.2638855E0,1.2743566E0,1.3283529E0,3.9984232E-1,9.6351814E-1,1.8142033E0,1.535778E0,0E0,0E0,0E0,0E0,0E0,0E0,0E0,0E0,0E0,0E0,0E0,0E0,0E0,0E0,0E0,0E0,0E0,0E0,0E0,0E0,0E0,0E0,0E0,0E0,0E0,0E0,0E0,0E0,0E0,0E0,0E0,0E0,0E0,0E0,0E0,0E0,0E0,0E0,0E0,0E0,0E0,0E0,0E0,0E0,0E0,0E0,0E0,0E0,0E0,0E0,0E0,0E0,0E0,0E0,0E0,0E0,0E0,0E0,0E0,0E0,0E0,0E0,0E0,0E0],"parents":[2147483647,0,0,1,1,2,2,3,3,4,4,5,5,6,6,7,7,8,8,9,9,10,10,11,11,12,12,13,13,14,14,15,15,16,16,17,17,18,18,19,19,20,20,21,21,22,22,23,23,24,24,25,25,26,26,27,27,28,28,29,29,30,30,31,31,32,32,33,33,34,34,35,35,36,36,37,37,38,38,39,39,40,40,41,41,42,42,43,43,44,44,45,45,46,46,47,47,48,48,49,49,50,50,51,51,52,52,53,53,54,54,55,55,56,56,57,57,58,58,59,59,60,60,61,61,62,62],"right_children":[2,4,6,8,10,12,14,16,18,20,22,24,26,28,30,32,34,36,38,40,42,44,46,48,50,52,54,56,58,60,62,64,66,68,70,72,74,76,78,80,82,84,86,88,90,92,94,96,98,100,102,104,106,108,110,112,114,116,118,120,122,124,126,-1,-1,-1,-1,-1,-1,-1,-1,-1,-1,-1,-1,-1,-1,-1,-1,-1,-1,-1,-1,-1,-1,-1,-1,-1,-1,-1,-1,-1,-1,-1,-1,-1,-1,-1,-1,-1,-1,-1,-1,-1,-1,-1,-1,-1,-1,-1,-1,-1,-1,-1,-1,-1,-1,-1,-1,-1,-1,-1,-1,-1,-1,-1,-1],"split_conditions":[2.6382488E-1,-2.548156E-1,1.3441821E0,1E0,2.936508E-1,1.334997E3,3.512195E-1,8E-1,1.48E0,1.6434218E2,-1.2217584E-1,2.7518482E0,1.25E0,2.362519E0,-1.8903339E-1,-1.4417579E0,1.6666666E0,-1.1686534E0,5.997497E-2,-9.564089E-2,-1.3693898E0,-4.1860464E-1,9.4052243E-1,1.5151516E-1,3.180513E-1,2.8112864E-1,3.161044E-1,1.9512194E-1,5.997465E-2,4.6545455E-1,2.857143E-1,5.555556E-1,-5.4545455E-2,1.1E1,-6.659456E-1,1.4432989E0,5.9832852E-2,4.0689656E-1,2.7777777E0,-8.388187E-1,5.9922513E-2,-1.1837842E0,-1.543927E0,5.9995096E-2,2E-1,3.3333334E-1,-4.4401726E-1,2.646561E2,1.655914E0,1.5E0,7E-1,1.5E-1,5.927859E-1,7E0,2E0,1.8333334E0,2.1868852E2,1.6836898E3,7.2209626E-1,6.535948E-3,1.1111112E0,1.25E-1,1.1E0,-6.328408E-4,-2.6366904E-3,-2.0660023E-4,2.531903E-4,5.130559E-4,-1.8339467E-3,-1.5549756E-3,-4.145275E-4,-1.4693654E-3,-1.9357253E-4,1.0526236E-3,-4.2759857E-4,-2.0502056E-3,2.237903E-3,-1.2134244E-3,2.9683276E-4,-2.5243292E-4,-2.870298E-3,3.316581E-3,-3.890521E-4,-3.3819688E-5,-1.0504109E-3,-3.3163294E-4,4.8773212E-4,-1.6194849E-3,2.6848842E-4,1.8309567E-3,-2.6982074E-4,-2.295619E-4,1.2414981E-4,-1.4943198E-3,7.672765E-4,-4.35669E-4,1.603563E-3,-2.1541629E-3,1.2230173E-3,3.9223835E-4,-2.4825113E-3,1.1343713E-3,-2.2891283E-4,3.1847204E-4,-2.7753774E-4,3.8447639E-4,1.4564483E-3,-0E0,3.1279747E-3,-1.212542E-4,-1.7408459E-3,5.5915713E-3,-0E0,1.0487265E-4,6.9452875E-4,5.573571E-4,-3.5728305E-3,2.4751127E-3,1.2331333E-3,-2.8792606E-3,1.2113701E-3,-0E0,5.3347657E-3,-2.0771583E-3,8.7271363E-4,1.0476704E-3,2.4362092E-3],"split_indices":[116,102,116,8,40,118,41,12,45,76,116,114,64,116,104,102,22,104,78,116,116,49,102,60,115,115,116,40,79,111,19,28,60,85,116,44,79,40,53,116,79,115,104,78,34,35,115,76,45,33,31,62,122,86,106,45,80,118,102,49,25,51,22,0,0,0,0,0,0,0,0,0,0,0,0,0,0,0,0,0,0,0,0,0,0,0,0,0,0,0,0,0,0,0,0,0,0,0,0,0,0,0,0,0,0,0,0,0,0,0,0,0,0,0,0,0,0,0,0,0,0,0,0,0,0,0,0],"split_type":[0,0,0,0,0,0,0,0,0,0,0,0,0,0,0,0,0,0,0,0,0,0,0,0,0,0,0,0,0,0,0,0,0,0,0,0,0,0,0,0,0,0,0,0,0,0,0,0,0,0,0,0,0,0,0,0,0,0,0,0,0,0,0,0,0,0,0,0,0,0,0,0,0,0,0,0,0,0,0,0,0,0,0,0,0,0,0,0,0,0,0,0,0,0,0,0,0,0,0,0,0,0,0,0,0,0,0,0,0,0,0,0,0,0,0,0,0,0,0,0,0,0,0,0,0,0,0],"sum_hessian":[1.32257E5,8.2624E4,4.9633E4,2.6388E4,5.6236E4,3.8709E4,1.0924E4,1.0752E4,1.5636E4,8.987E3,4.7249E4,4.036E3,3.4673E4,8.545E3,2.379E3,8.904E3,1.848E3,1.3848E4,1.788E3,2.73E2,8.714E3,3.0171E4,1.7078E4,2.659E3,1.377E3,3.3684E4,9.89E2,6.708E3,1.837E3,9.4E1,2.285E3,7.11E2,8.193E3,6.51E2,1.197E3,2.274E3,1.1574E4,6.91E2,1.097E3,1.99E2,7.4E1,1.417E3,7.297E3,8.84E2,2.9287E4,1.4481E4,2.597E3,2.252E3,4.07E2,3.9E2,9.87E2,1.303E4,2.0654E4,9.8E1,8.91E2,5.3E1,6.655E3,6.31E2,1.206E3,2.1E1,7.3E1,1.321E3,9.64E2,6.08E2,1.03E2,4.584E3,3.609E3,5.05E2,1.46E2,7.48E2,4.49E2,1.339E3,9.35E2,2.31E2,1.1343E4,6.71E2,2E1,8.22E2,2.75E2,5.1E1,1.48E2,1.7E1,5.7E1,1.033E3,3.84E2,9.75E2,6.322E3,7.03E2,1.81E2,1.55E2,2.9132E4,8.395E3,6.086E3,1.5E2,2.447E3,2.138E3,1.14E2,3.53E2,5.4E1,1.97E2,1.93E2,6.86E2,3.01E2,8.297E3,4.733E3,2.0073E4,5.81E2,3.6E1,6.2E1,4.56E2,4.35E2,3.2E1,2.1E1,3.405E3,3.25E3,6.13E2,1.8E1,3.73E2,8.33E2,1E1,1.1E1,1.2E1,6.1E1,5E1,1.271E3,5.71E2,3.93E2],"tree_param":{"num_deleted":"0","num_feature":"123","num_nodes":"127","size_leaf_vector":"1"}},{"base_weights":[-5.536353E-4,-1.6401371E-2,1.681135E-2,-1.111416E-2,-3.0239083E-2,1.0950772E-2,4.199521E-2,-2.9368397E-2,-6.869455E-3,-9.405578E-2,-2.7840896E-2,1.8734274E-2,-3.028605E-3,5.1277585E-2,2.0679316E-2,-4.596703E-2,-1.3222679E-2,-9.761634E-3,1.7444408E-2,-1.4421113E-1,-1.41790565E-2,-4.3600164E-2,-2.0910928E-2,1.624794E-2,8.894338E-2,-8.801227E-3,4.604521E-2,5.7050604E-2,-2.3179222E-3,7.5510796E-4,4.234111E-2,-5.9536297E-2,-9.395669E-3,-1.1782426E-1,-5.4726405E-3,-1.8146822E-2,7.6694024E-4,-1.9503224E-3,5.44615E-2,-1.8728963E-1,-0E0,-8.756463E-2,9.124245E-2,-5.0417412E-2,2.7140914E-2,1.6115212E-1,-2.1711798E-2,2.9339815E-2,6.853334E-3,-3.5856832E-3,9.508144E-2,-1.0696968E-2,8.9350775E-2,1.401932E-2,7.826672E-2,7.6439366E-2,3.9109785E-2,-1.04919285E-1,3.3531785E-2,-1.00169525E-1,1.2143165E-2,8.298952E-2,2.4858236E-2,-1.0102894E-3,8.571135E-4,-9.344543E-4,2.576877E-4,-2.7745424E-3,-0E0,1.3205187E-3,-2.0906178E-4,4.3370327E-4,-3.4394817E-4,-5.039449E-4,1.3033052E-4,-1.7622999E-3,3.3277964E-5,1.4797308E-3,2.3881694E-4,-0E0,-3.17675E-3,5.716752E-3,-6.5337506E-4,1.2482231E-3,-2.5922416E-3,-8.5258926E-4,2.6162127E-3,-7.282599E-4,-3.266299E-3,-3.3792725E-4,2.5136098E-3,-6.887789E-4,5.2760076E-3,-2.7610955E-4,-8.346958E-4,3.677599E-5,6.0198345E-4,8.663096E-4,3.4205812E-5,4.024127E-5,1.7398829E-3,8.427019E-4,-2.0572977E-4,3.1695305E-3,4.619599E-4,-1.3460268E-4,1.8366657E-3,1.976268E-3,2.5891588E-4,2.4418498E-3,1.0823965E-3,3.9714356E-5,9.4561634E-4,-0E0,-4.437827E-3,-4.3348395E-4,1.386792E-3,-1.11515714E-4,-3.6675958E-3,-8.0691534E-5,1.1058174E-3,3.0760837E-3,6.949508E-4,-2.6943488E-3,5.272945E-4],"categories":[],"categories_nodes":[],"categories_segments":[],"categories_sizes":[],"default_left":[0,0,0,0,0,0,0,0,0,0,0,0,0,0,0,0,0,0,0,0,0,0,0,0,0,0,0,0,0,0,0,0,0,0,0,0,0,0,0,0,0,0,0,0,0,0,0,0,0,0,0,0,0,0,0,0,0,0,0,0,0,0,0,0,0,0,0,0,0,0,0,0,0,0,0,0,0,0,0,0,0,0,0,0,0,0,0,0,0,0,0,0,0,0,0,0,0,0,0,0,0,0,0,0,0,0,0,0,0,0,0,0,0,0,0,0,0,0,0,0,0,0,0,0,0],"id":4,"left_children":[1,3,5,7,9,11,13,15,17,19,21,23,25,27,29,31,33,35,37,39,41,43,45,47,49,51,53,55,57,59,61,63,65,67,69,71,73,75,77,79,81,83,85,87,89,91,93,95,97,-1,99,101,103,105,107,109,111,113,115,117,119,121,123,-1,-1,-1,-1,-1,-1,-1,-1,-1,-1,-1,-1,-1,-1,-1,-1,-1,-1,-1,-1,-1,-1,-1,-1,-1,-1,-1,-1,-1,-1,-1,-1,-1,-1,-1,-1,-1,-1,-1,-1,-1,-1,-1,-1,-1,-1,-1,-1,-1,-1,-1,-1,-1,-1,-1,-1,-1,-1,-1,-1,-1,-1],"loss_changes":[3.643483E1,5.0127563E0,9.248152E0,3.8404927E0,2.7585888E0,5.598201E0,2.2545738E0,2.4432526E0,2.8571382E0,2.478629E0,1.9249792E0,5.6190977E0,5.1269035E0,2.618864E0,1.5165703E0,2.19102E0,3.7361507E0,3.244398E0,3.1465778E0,2.5489826E0,2.0764985E0,2.7141256E0,1.6883092E0,3.8727522E0,1.981925E0,2.9424744E0,1.8374991E0,2.4392319E0,2.9562514E0,2.1029232E0,1.07603E0,1.757864E0,1.6912404E0,2.2593493E0,3.0341046E0,3.4266787E0,3.9297605E0,1.3909229E0,2.1782422E0,1.0893812E0,1.4587857E0,2.2455437E0,1.2691673E0,3.0081263E0,3.2205005E0,2.130931E0,1.5807962E0,3.124752E0,4.120841E0,0E0,1.4052696E0,2.3858116E0,1.6891549E0,2.3952181E0,2.514378E0,1.856041E0,2.9073105E0,3.7902145E0,1.9670309E0,1.9550774E0,1.8373969E0,1.8350608E0,1.8809114E0,0E0,0E0,0E0,0E0,0E0,0E0,0E0,0E0,0E0,0E0,0E0,0E0,0E0,0E0,0E0,0E0,0E0,0E0,0E0,0E0,0E0,0E0,0E0,0E0,0E0,0E0,0E0,0E0,0E0,0E0,0E0,0E0,0E0,0E0,0E0,0E0,0E0,0E0,0E0,0E0,0E0,0E0,0E0,0E0,0E0,0E0,0E0,0E0,0E0,0E0,0E0,0E0,0E0,0E0,0E0,0E0,0E0,0E0,0E0,0E0,0E0,0E0],"parents":[2147483647,0,0,1,1,2,2,3,3,4,4,5,5,6,6,7,7,8,8,9,9,10,10,11,11,12,12,13,13,14,14,15,15,16,16,17,17,18,18,19,19,20,20,21,21,22,22,23,23,24,24,25,25,26,26,27,27,28,28,29,29,30,30,31,31,32,32,33,33,34,34,35,35,36,36,37,37,38,38,39,39,40,40,41,41,42,42,43,43,44,44,45,45,46,46,47,47,48,48,50,50,51,51,52,52,53,53,54,54,55,55,56,56,57,57,58,58,59,59,60,60,61,61,62,62],"right_children":[2,4,6,8,10,12,14,16,18,20,22,24,26,28,30,32,34,36,38,40,42,44,46,48,50,52,54,56,58,60,62,64,66,68,70,72,74,76,78,80,82,84,86,88,90,92,94,96,98,-1,100,102,104,106,108,110,112,114,116,118,120,122,124,-1,-1,-1,-1,-1,-1,-1,-1,-1,-1,-1,-1,-1,-1,-1,-1,-1,-1,-1,-1,-1,-1,-1,-1,-1,-1,-1,-1,-1,-1,-1,-1,-1,-1,-1,-1,-1,-1,-1,-1,-1,-1,-1,-1,-1,-1,-1,-1,-1,-1,-1,-1,-1,-1,-1,-1,-1,-1,-1,-1,-1,-1],"split_conditions":[4.9544167E-2,2.0939684E2,1.4789016E0,1.2375E0,6.25E-1,2.80168E-1,1E0,4.5216662E-1,6.075168E-1,8E-1,-4.3560943E-1,5.91403E-1,1.6487696E0,7.0466405E-1,1.8571428E0,4.6005931E-1,-1.3268228E0,1.2857143E0,-7.3539287E-1,4.147452E-1,3.02877E-1,5.5118215E-1,7.8571427E-1,1.2830317E-1,-2.1212122E-1,8E0,1.49E2,1.4362416E0,1.4706134E3,4E0,-1.21212125E-1,9.142857E-1,6.242E1,1.5947341E3,2.1435046E3,-1.9224827E-1,-6.0754603E-1,-1.556529E0,-2.608383E-1,-3.151515E-1,1.2083334E0,1E0,2.857143E-1,1.5E0,1.2522522E0,2.276066E2,2E0,-2.9333332E-1,-1.4609318E0,-3.5856832E-3,1.8054608E2,-2.5E-1,1.3605442E-2,2.2596352E2,3.14E2,1.3030303E0,1.7607791E2,6E0,1.2E0,7.4285716E-1,1.509463E-1,7.210435E-1,1.5983469E3,-1.0102894E-3,8.571135E-4,-9.344543E-4,2.576877E-4,-2.7745424E-3,-0E0,1.3205187E-3,-2.0906178E-4,4.3370327E-4,-3.4394817E-4,-5.039449E-4,1.3033052E-4,-1.7622999E-3,3.3277964E-5,1.4797308E-3,2.3881694E-4,-0E0,-3.17675E-3,5.716752E-3,-6.5337506E-4,1.2482231E-3,-2.5922416E-3,-8.5258926E-4,2.6162127E-3,-7.282599E-4,-3.266299E-3,-3.3792725E-4,2.5136098E-3,-6.887789E-4,5.2760076E-3,-2.7610955E-4,-8.346958E-4,3.677599E-5,6.0198345E-4,8.663096E-4,3.4205812E-5,4.024127E-5,1.7398829E-3,8.427019E-4,-2.0572977E-4,3.1695305E-3,4.619599E-4,-1.3460268E-4,1.8366657E-3,1.976268E-3,2.5891588E-4,2.4418498E-3,1.0823965E-3,3.9714356E-5,9.4561634E-4,-0E0,-4.437827E-3,-4.3348395E-4,1.386792E-3,-1.11515714E-4,-3.6675958E-3,-8.0691534E-5,1.1058174E-3,3.0760837E-3,6.949508E-4,-2.6943488E-3,5.272945E-4],"split_indices":[115,77,115,47,21,108,73,122,84,25,102,84,47,108,20,103,115,23,115,105,103,121,43,66,61,69,38,45,75,57,68,67,119,120,95,108,103,102,66,68,45,55,51,42,43,77,34,48,108,0,77,100,48,77,38,42,119,50,37,66,113,121,74,0,0,0,0,0,0,0,0,0,0,0,0,0,0,0,0,0,0,0,0,0,0,0,0,0,0,0,0,0,0,0,0,0,0,0,0,0,0,0,0,0,0,0,0,0,0,0,0,0,0,0,0,0,0,0,0,0,0,0,0,0,0],"split_type":[0,0,0,0,0,0,0,0,0,0,0,0,0,0,0,0,0,0,0,0,0,0,0,0,0,0,0,0,0,0,0,0,0,0,0,0,0,0,0,0,0,0,0,0,0,0,0,0,0,0,0,0,0,0,0,0,0,0,0,0,0,0,0,0,0,0,0,0,0,0,0,0,0,0,0,0,0,0,0,0,0,0,0,0,0,0,0,0,0,0,0,0,0,0,0,0,0,0,0,0,0,0,0,0,0,0,0,0,0,0,0,0,0,0,0,0,0,0,0,0,0,0,0,0,0],"sum_hessian":[1.32398E5,6.9263E4,6.3135E4,5.0184E4,1.9079E4,5.1259E4,1.1876E4,9.409E3,4.0775E4,6.71E2,1.8408E4,3.2987E4,1.8272E4,8.23E3,3.646E3,4.599E3,4.81E3,3.6489E4,4.286E3,4.02E2,2.69E2,5.564E3,1.2844E4,3.1877E4,1.11E3,1.6373E4,1.899E3,7.452E3,7.78E2,1.931E3,1.715E3,3.328E3,1.271E3,3.2E2,4.49E3,2.0382E4,1.6107E4,2.789E3,1.497E3,3.11E2,9.1E1,1.66E2,1.03E2,5.092E3,4.72E2,4.9E1,1.2795E4,1.3259E4,1.8618E4,1.7E1,1.093E3,1.6076E4,2.97E2,9.73E2,9.26E2,3.546E3,3.906E3,2.11E2,5.67E2,1.84E2,1.747E3,4.93E2,1.222E3,3.21E3,1.18E2,4.5E2,8.21E2,2.16E2,1.04E2,3.47E2,4.143E3,1.496E3,1.8886E4,2.97E3,1.3137E4,1.11E2,2.678E3,7.3E2,7.67E2,1.6E1,2.95E2,1E1,8.1E1,4.7E1,1.19E2,2.9E1,7.4E1,4.968E3,1.24E2,3.38E2,1.34E2,1.9E1,3E1,1.1323E4,1.472E3,3.317E3,9.942E3,1.625E3,1.6993E4,1.68E2,9.25E2,5.51E2,1.5525E4,9.6E1,2.01E2,7.87E2,1.86E2,5.13E2,4.13E2,3.02E2,3.244E3,1.444E3,2.462E3,1.34E2,7.7E1,2.56E2,3.11E2,1.14E2,7E1,1.329E3,4.18E2,1.18E2,3.75E2,4.5E1,1.177E3],"tree_param":{"num_deleted":"0","num_feature":"123","num_nodes":"125","size_leaf_vector":"1"}},{"base_weights":[6.7257654E-4,-1.1155439E-2,2.4135483E-2,-1.8480074E-2,-2.4680712E-3,1.8850813E-2,6.4237535E-2,-1.1615283E-2,-3.6561135E-2,1.37485E-2,-7.5948914E-3,2.3002555E-3,2.5478391E-2,1.0301757E-1,3.8967937E-2,-3.267963E-2,-5.4815467E-3,-4.098329E-2,8.390622E-3,2.1601021E-2,-1.8672789E-2,1.1409195E-2,-1.3762436E-2,6.4732237E-3,-5.447481E-2,5.1502995E-2,2.1369318E-2,1.0656614E-1,-1.6959581E-1,-2.162551E-2,4.659546E-2,-2.2466449E-2,-5.637704E-2,3.3931045E-3,-1.863445E-2,-8.638537E-2,-3.5386246E-2,-1.02041475E-1,2.8509777E-2,7.67338E-2,1.3805338E-2,6.6989824E-2,-3.524766E-2,-2.0339172E-2,2.3050947E-2,2.5704019E-2,-1.7200427E-2,-5.936788E-4,3.4324586E-2,-2.4741063E-2,-2.0738211E-1,1.19551934E-1,4.0675215E-2,9.862527E-3,3.4976076E-2,1.2365662E-1,5.01499E-2,-0E0,-5.394026E-3,-1.3912165E-1,1.4224085E-2,8.267196E-2,3.2030895E-2,8.485187E-5,-5.1951595E-4,-1.4257085E-3,-6.331972E-4,9.671112E-5,-8.172411E-4,-7.5916527E-4,-1.0007887E-4,-1.9856808E-3,-5.780674E-4,-1.5843888E-3,-4.9283536E-4,-0E0,-2.919283E-3,3.1868054E-4,5.6419303E-3,2.0076246E-3,1.0062407E-4,5.3283253E-5,9.250793E-4,2.816609E-3,-0E0,-4.273409E-5,-1.1599675E-3,-1.2650786E-3,1.4086448E-6,6.847364E-4,-4.3573713E-5,2.7590015E-3,2.1269268E-4,-1.1752441E-3,-2.3403851E-4,7.905692E-5,-6.0473126E-4,3.271002E-4,1.6602149E-3,-3.0883271E-3,-6.18353E-5,2.487975E-3,-4.0135244E-3,5.0847437E-3,1.4001384E-3,-1.3462253E-4,8.8125444E-4,7.4426935E-5,1.0744497E-3,6.563682E-4,-3.8158738E-5,1.989686E-3,-2.230226E-3,1.6363806E-3,-8.5032434E-4,-3.4027008E-4,-4.9503567E-3,1.3655757E-3,-1.4174699E-3,1.5291099E-3,-1.3089818E-3,7.0641446E-4,-3.0277975E-4],"categories":[],"categories_nodes":[],"categories_segments":[],"categories_sizes":[],"default_left":[0,0,0,0,0,0,0,0,0,0,0,0,0,0,0,0,0,0,0,0,0,0,0,0,0,0,0,0,0,0,0,0,0,0,0,0,0,0,0,0,0,0,0,0,0,0,0,0,0,0,0,0,0,0,0,0,0,0,0,0,0,0,0,0,0,0,0,0,0,0,0,0,0,0,0,0,0,0,0,0,0,0,0,0,0,0,0,0,0,0,0,0,0,0,0,0,0,0,0,0,0,0,0,0,0,0,0,0,0,0,0,0,0,0,0,0,0,0,0,0,0,0,0],"id":5,"left_children":[1,3,5,7,9,11,13,15,17,19,21,23,25,27,29,31,33,35,37,39,41,43,45,47,49,51,53,55,57,59,61,63,65,67,69,71,73,75,77,79,81,83,85,87,89,91,93,95,97,99,101,103,105,107,109,111,113,-1,-1,115,117,119,121,-1,-1,-1,-1,-1,-1,-1,-1,-1,-1,-1,-1,-1,-1,-1,-1,-1,-1,-1,-1,-1,-1,-1,-1,-1,-1,-1,-1,-1,-1,-1,-1,-1,-1,-1,-1,-1,-1,-1,-1,-1,-1,-1,-1,-1,-1,-1,-1,-1,-1,-1,-1,-1,-1,-1,-1,-1,-1,-1,-1],"loss_changes":[3.676051E1,5.5710526E0,9.302097E0,5.851307E0,3.3450398E0,4.270772E0,4.850992E0,4.419154E0,2.63945E0,2.4545588E0,3.6021247E0,2.6103756E0,2.896078E0,1.8594341E0,1.4815335E0,1.7720776E0,3.1532524E0,2.867384E0,2.4423022E0,3.2248654E0,2.5762587E0,2.7649338E0,3.1414046E0,2.118168E0,3.107252E0,2.5671844E0,3.7315388E0,1.6857433E0,6.8738574E-1,1.5596155E0,1.3209844E0,1.6347055E0,1.0949202E0,2.363516E0,3.87546E0,2.3117914E0,2.667798E0,1.5005391E0,2.1655557E0,3.1874352E0,3.1199415E0,2.2020917E0,1.8450446E0,2.5246766E0,2.951697E0,3.0891485E0,2.7601933E0,1.8187158E0,1.9241898E0,2.003448E0,2.1211433E0,2.5773978E0,2.5213838E0,3.85174E0,2.8156195E0,1.042305E0,2.7520735E0,0E0,0E0,1.3259575E0,1.8461554E0,1.8809614E0,1.3626876E0,0E0,0E0,0E0,0E0,0E0,0E0,0E0,0E0,0E0,0E0,0E0,0E0,0E0,0E0,0E0,0E0,0E0,0E0,0E0,0E0,0E0,0E0,0E0,0E0,0E0,0E0,0E0,0E0,0E0,0E0,0E0,0E0,0E0,0E0,0E0,0E0,0E0,0E0,0E0,0E0,0E0,0E0,0E0,0E0,0E0,0E0,0E0,0E0,0E0,0E0,0E0,0E0,0E0,0E0,0E0,0E0,0E0,0E0,0E0,0E0],"parents":[2147483647,0,0,1,1,2,2,3,3,4,4,5,5,6,6,7,7,8,8,9,9,10,10,11,11,12,12,13,13,14,14,15,15,16,16,17,17,18,18,19,19,20,20,21,21,22,22,23,23,24,24,25,25,26,26,27,27,28,28,29,29,30,30,31,31,32,32,33,33,34,34,35,35,36,36,37,37,38,38,39,39,40,40,41,41,42,42,43,43,44,44,45,45,46,46,47,47,48,48,49,49,50,50,51,51,52,52,53,53,54,54,55,55,56,56,59,59,60,60,61,61,62,62],"right_children":[2,4,6,8,10,12,14,16,18,20,22,24,26,28,30,32,34,36,38,40,42,44,46,48,50,52,54,56,58,60,62,64,66,68,70,72,74,76,78,80,82,84,86,88,90,92,94,96,98,100,102,104,106,108,110,112,114,-1,-1,116,118,120,122,-1,-1,-1,-1,-1,-1,-1,-1,-1,-1,-1,-1,-1,-1,-1,-1,-1,-1,-1,-1,-1,-1,-1,-1,-1,-1,-1,-1,-1,-1,-1,-1,-1,-1,-1,-1,-1,-1,-1,-1,-1,-1,-1,-1,-1,-1,-1,-1,-1,-1,-1,-1,-1,-1,-1,-1,-1,-1,-1,-1],"split_conditions":[3.524253E-1,-2.9639158E-1,1.8420318E0,-8.975553E-2,2.5E-1,1.4595251E3,1.53E2,-1.5220941E0,1E-1,5.9979677E-2,-1.3088024E-1,2E1,1E0,1.3551973E0,1.40667E3,5.997429E-2,1.4E0,1.3448488E3,2.5343025E-1,1.3492666E3,-2.0257251E-1,-7.470735E-1,3.2E1,1.4538461E0,2E0,5E-1,8.722641E-1,7.5E-1,6.666667E-1,6.666667E-1,6.4444447E-1,1E0,-6.666667E-2,2E0,-7.216103E-1,1.2121212E-2,-1.431375E0,3.1923364E3,1.77628E3,-1.873631E-1,3.8581812E-1,-2.6569265E-1,1.8181818E-2,2E0,3.667711E-1,1E-1,1.0083333E0,1.5151516E-1,1.2517779E0,1.8458739E-1,1.4988183E0,1.117647E0,2.8204763E3,1.9268292E0,4.99E2,3E0,5.4545455E-2,-0E0,-5.394026E-3,1.4362513E3,2.1E0,3.857143E0,1.4285715E0,8.485187E-5,-5.1951595E-4,-1.4257085E-3,-6.331972E-4,9.671112E-5,-8.172411E-4,-7.5916527E-4,-1.0007887E-4,-1.9856808E-3,-5.780674E-4,-1.5843888E-3,-4.9283536E-4,-0E0,-2.919283E-3,3.1868054E-4,5.6419303E-3,2.0076246E-3,1.0062407E-4,5.3283253E-5,9.250793E-4,2.816609E-3,-0E0,-4.273409E-5,-1.1599675E-3,-1.2650786E-3,1.4086448E-6,6.847364E-4,-4.3573713E-5,2.7590015E-3,2.1269268E-4,-1.1752441E-3,-2.3403851E-4,7.905692E-5,-6.0473126E-4,3.271002E-4,1.6602149E-3,-3.0883271E-3,-6.18353E-5,2.487975E-3,-4.0135244E-3,5.0847437E-3,1.4001384E-3,-1.3462253E-4,8.8125444E-4,7.4426935E-5,1.0744497E-3,6.563682E-4,-3.8158738E-5,1.989686E-3,-2.230226E-3,1.6363806E-3,-8.5032434E-4,-3.4027008E-4,-4.9503567E-3,1.3655757E-3,-1.4174699E-3,1.5291099E-3,-1.3089818E-3,7.0641446E-4,-3.0277975E-4],"split_indices":[116,116,116,66,51,120,58,116,100,78,66,72,20,107,120,79,8,75,112,74,116,105,58,44,33,36,116,15,32,34,66,33,60,23,104,60,104,96,120,105,105,66,60,72,107,27,42,61,116,121,81,46,96,46,58,6,60,0,0,75,23,53,25,0,0,0,0,0,0,0,0,0,0,0,0,0,0,0,0,0,0,0,0,0,0,0,0,0,0,0,0,0,0,0,0,0,0,0,0,0,0,0,0,0,0,0,0,0,0,0,0,0,0,0,0,0,0,0,0,0,0,0,0],"split_type":[0,0,0,0,0,0,0,0,0,0,0,0,0,0,0,0,0,0,0,0,0,0,0,0,0,0,0,0,0,0,0,0,0,0,0,0,0,0,0,0,0,0,0,0,0,0,0,0,0,0,0,0,0,0,0,0,0,0,0,0,0,0,0,0,0,0,0,0,0,0,0,0,0,0,0,0,0,0,0,0,0,0,0,0,0,0,0,0,0,0,0,0,0,0,0,0,0,0,0,0,0,0,0,0,0,0,0,0,0,0,0,0,0,0,0,0,0,0,0,0,0,0,0],"sum_hessian":[1.32399E5,8.7987E4,4.4412E4,4.7655E4,4.0332E4,3.927E4,5.142E3,3.4594E4,1.3061E4,9.626E3,3.0706E4,1.1286E4,2.7984E4,2.008E3,3.134E3,7.753E3,2.6841E4,1.1918E4,1.143E3,7.782E3,1.844E3,7.471E3,2.3235E4,1.0535E4,7.51E2,3.772E3,2.4212E4,1.987E3,2.1E1,3.31E2,2.803E3,5.457E3,2.296E3,1.5967E4,1.0874E4,1.282E3,1.0636E4,1.66E2,9.77E2,9.43E2,6.839E3,2.86E2,1.558E3,1.974E3,5.497E3,1.831E3,2.1404E4,8.365E3,2.17E3,6.36E2,1.15E2,5.01E2,3.271E3,1.3171E4,1.1041E4,1.507E3,4.8E2,1E1,1.1E1,8.6E1,2.45E2,7.8E2,2.023E3,1.461E3,3.996E3,7.12E2,1.584E3,1.5234E4,7.33E2,3.16E3,7.714E3,6.98E2,5.84E2,6.1E2,1.0026E4,7.2E1,9.4E1,9.57E2,2E1,5.37E2,4.06E2,5.575E3,1.264E3,1.09E2,1.77E2,8.62E2,6.96E2,5.18E2,1.456E3,3.098E3,2.399E3,1.3E2,1.701E3,8.17E2,2.0587E4,7.253E3,1.112E3,1.838E3,3.32E2,6.2E1,5.74E2,1E1,1.05E2,6E1,4.41E2,7.54E2,2.517E3,1.2126E4,1.045E3,9.395E3,1.646E3,1.497E3,1E1,3.25E2,1.55E2,5.6E1,3E1,1.52E2,9.3E1,7.25E2,5.5E1,1.639E3,3.84E2],"tree_param":{"num_deleted":"0","num_feature":"123","num_nodes":"123","size_leaf_vector":"1"}},{"base_weights":[1.595237E-4,-1.7658573E-2,1.6455093E-2,-3.4518693E-2,-1.1961972E-2,2.4990707E-3,3.0635431E-2,-2.6998766E-2,-6.944026E-2,-3.8043256E-3,-2.1210592E-2,1.5820695E-2,-7.6780953E-3,2.5763104E-2,6.014604E-2,-4.5999713E-2,-1.1143016E-2,-7.244675E-2,1.7900899E-1,1.2115122E-1,-4.460654E-3,-5.8482587E-2,-1.5336944E-2,-2.5960014E-3,3.452948E-2,-1.0804871E-2,4.862093E-2,1.2487304E-2,3.6478583E-2,1.35170575E-2,7.0739985E-2,-5.324531E-2,4.1035633E-3,2.912063E-2,-2.164446E-2,-1.3158575E-1,-5.890732E-2,5.769151E-3,-0E0,1.1518664E-2,2.2099848E-1,-0E0,-2.3137122E-2,-5.0160717E-2,-1.8550524E-1,-1.93247E-2,1.52600305E-2,4.9922206E-3,-6.560961E-2,7.494662E-2,2.6168577E-2,-1.6670233E-2,9.295034E-3,1.96088E-1,2.8490476E-2,1.904534E-2,-2.2255272E-2,8.867641E-2,3.0854616E-2,-6.6776544E-2,3.3778545E-2,7.88962E-2,3.2879522E-3,-7.019544E-4,-1.5652082E-3,4.7055827E-4,-1.7168404E-3,1.1911961E-4,1.9949423E-3,-4.4661816E-4,6.242395E-4,-2.7307186E-3,-4.5065727E-4,3.0371014E-6,-1.1024597E-3,-1.5575395E-3,2.7044762E-3,4.72831E-3,-2.977162E-4,-9.294883E-6,2.6364506E-3,-1.8714464E-4,-8.894973E-4,2.2156674E-3,-8.479147E-4,-4.2533223E-3,-7.1547116E-4,7.6880923E-4,-3.2772162E-4,6.807585E-4,-5.6650257E-4,-9.769901E-4,1.9592576E-4,-1.4370194E-3,3.2142017E-4,1.3778848E-3,-3.2116275E-4,-1.8531858E-4,5.799382E-4,5.3021096E-5,-4.048156E-4,-1.1020035E-3,2.9652828E-4,-0E0,4.8888675E-3,-3.6374133E-4,1.095407E-3,4.0607792E-4,-1.8722289E-4,-9.797356E-4,5.4392927E-5,1.8610422E-3,5.007444E-4,-1.4453641E-3,5.033846E-4,-1.9458791E-3,2.9214929E-4,4.4136886E-3,3.957699E-4,1.130947E-3,2.5776085E-3,4.7463016E-4,-2.3105696E-3],"categories":[],"categories_nodes":[],"categories_segments":[],"categories_sizes":[],"default_left":[0,0,0,0,0,0,0,0,0,0,0,0,0,0,0,0,0,0,0,0,0,0,0,0,0,0,0,0,0,0,0,0,0,0,0,0,0,0,0,0,0,0,0,0,0,0,0,0,0,0,0,0,0,0,0,0,0,0,0,0,0,0,0,0,0,0,0,0,0,0,0,0,0,0,0,0,0,0,0,0,0,0,0,0,0,0,0,0,0,0,0,0,0,0,0,0,0,0,0,0,0,0,0,0,0,0,0,0,0,0,0,0,0,0,0,0,0,0,0,0,0,0,0],"id":6,"left_children":[1,3,5,7,9,11,13,15,17,19,21,23,25,27,29,31,33,35,37,39,41,43,45,47,49,51,53,55,57,59,61,63,65,67,69,71,73,-1,-1,75,77,79,81,83,85,87,89,91,93,95,97,99,101,103,105,107,109,111,113,115,117,119,121,-1,-1,-1,-1,-1,-1,-1,-1,-1,-1,-1,-1,-1,-1,-1,-1,-1,-1,-1,-1,-1,-1,-1,-1,-1,-1,-1,-1,-1,-1,-1,-1,-1,-1,-1,-1,-1,-1,-1,-1,-1,-1,-1,-1,-1,-1,-1,-1,-1,-1,-1,-1,-1,-1,-1,-1,-1,-1,-1,-1],"loss_changes":[3.8391327E1,6.001257E0,1.3631718E1,4.043354E0,3.5310879E0,4.73887E0,4.8079224E0,3.8710747E0,1.9380112E0,1.9104089E0,4.7326126E0,5.265703E0,3.4203134E0,4.119959E0,2.2655506E0,2.2145271E0,3.025596E0,1.9537554E0,8.4832495E-1,1.016985E0,2.111175E0,2.8306618E0,2.334741E0,3.716166E0,2.4195194E0,2.2142496E0,2.715882E0,3.0019248E0,4.604187E0,1.443358E0,2.0357513E0,1.8901062E0,2.008373E0,2.8900075E0,2.336457E0,1.86199E0,1.5725074E0,0E0,0E0,1.2286457E0,1.4552886E0,2.164547E0,1.7386374E0,1.8453813E0,1.6307392E0,1.6704893E0,3.1072772E0,3.31164E0,1.9359863E0,1.6032205E0,2.5730877E0,2.657485E0,3.084199E0,2.2642298E0,1.9693928E0,2.3369594E0,2.1961699E0,2.4085112E0,1.9036455E0,9.6714175E-1,1.1802351E0,1.7696514E0,1.6092219E0,0E0,0E0,0E0,0E0,0E0,0E0,0E0,0E0,0E0,0E0,0E0,0E0,0E0,0E0,0E0,0E0,0E0,0E0,0E0,0E0,0E0,0E0,0E0,0E0,0E0,0E0,0E0,0E0,0E0,0E0,0E0,0E0,0E0,0E0,0E0,0E0,0E0,0E0,0E0,0E0,0E0,0E0,0E0,0E0,0E0,0E0,0E0,0E0,0E0,0E0,0E0,0E0,0E0,0E0,0E0,0E0,0E0,0E0,0E0,0E0],"parents":[2147483647,0,0,1,1,2,2,3,3,4,4,5,5,6,6,7,7,8,8,9,9,10,10,11,11,12,12,13,13,14,14,15,15,16,16,17,17,18,18,19,19,20,20,21,21,22,22,23,23,24,24,25,25,26,26,27,27,28,28,29,29,30,30,31,31,32,32,33,33,34,34,35,35,36,36,39,39,40,40,41,41,42,42,43,43,44,44,45,45,46,46,47,47,48,48,49,49,50,50,51,51,52,52,53,53,54,54,55,55,56,56,57,57,58,58,59,59,60,60,61,61,62,62],"right_children":[2,4,6,8,10,12,14,16,18,20,22,24,26,28,30,32,34,36,38,40,42,44,46,48,50,52,54,56,58,60,62,64,66,68,70,72,74,-1,-1,76,78,80,82,84,86,88,90,92,94,96,98,100,102,104,106,108,110,112,114,116,118,120,122,-1,-1,-1,-1,-1,-1,-1,-1,-1,-1,-1,-1,-1,-1,-1,-1,-1,-1,-1,-1,-1,-1,-1,-1,-1,-1,-1,-1,-1,-1,-1,-1,-1,-1,-1,-1,-1,-1,-1,-1,-1,-1,-1,-1,-1,-1,-1,-1,-1,-1,-1,-1,-1,-1,-1,-1,-1,-1,-1,-1],"split_conditions":[-4.6810467E-2,-4.0941936E-1,4.4578892E-1,-1.0256872E-1,2E0,2.0210063E-2,1.8420318E0,-1.1545124E0,-5.522107E-2,-5.3939396E-1,1.226415E0,-1.7767264E-1,1.3441821E0,1.2173913E0,4E0,5.5890507E-1,2.2222222E-1,2E-1,1.9885147E2,1.4968554E0,1.8250642E0,1.6943221E3,4.4444445E-1,2.3128552E2,7.5E-1,7.5E-1,-1.0944424E2,1.8518797E0,-1.1921984E0,6E0,2.4E1,-5.0666666E-1,1.79175E3,-3.983647E-1,1E-1,1.5664609E3,8.958333E-1,5.769151E-3,-0E0,-3.447E1,2.0357144E0,2.3524533E2,2.7755576E-17,-3E-1,1E0,3.043478E-1,1.3333334E0,3.0508474E-1,1.5E0,2.3877216E2,-8.9622104E-1,-7.8159684E-1,1E0,2.8695652E-1,2.5E-1,1.4E1,2.4750418E2,7.642759E-1,-4.9078932E-1,3.1049524E2,1E0,4.5E-1,1.4042553E0,-7.019544E-4,-1.5652082E-3,4.7055827E-4,-1.7168404E-3,1.1911961E-4,1.9949423E-3,-4.4661816E-4,6.242395E-4,-2.7307186E-3,-4.5065727E-4,3.0371014E-6,-1.1024597E-3,-1.5575395E-3,2.7044762E-3,4.72831E-3,-2.977162E-4,-9.294883E-6,2.6364506E-3,-1.8714464E-4,-8.894973E-4,2.2156674E-3,-8.479147E-4,-4.2533223E-3,-7.1547116E-4,7.6880923E-4,-3.2772162E-4,6.807585E-4,-5.6650257E-4,-9.769901E-4,1.9592576E-4,-1.4370194E-3,3.2142017E-4,1.3778848E-3,-3.2116275E-4,-1.8531858E-4,5.799382E-4,5.3021096E-5,-4.048156E-4,-1.1020035E-3,2.9652828E-4,-0E0,4.8888675E-3,-3.6374133E-4,1.095407E-3,4.0607792E-4,-1.8722289E-4,-9.797356E-4,5.4392927E-5,1.8610422E-3,5.007444E-4,-1.4453641E-3,5.033846E-4,-1.9458791E-3,2.9214929E-4,4.4136886E-3,3.957699E-4,1.130947E-3,2.5776085E-3,4.7463016E-4,-2.3105696E-3],"split_indices":[116,102,115,67,71,67,116,115,116,68,47,115,116,47,70,103,40,2,76,47,81,74,18,77,4,13,80,81,109,86,72,67,118,116,100,75,43,0,0,119,47,76,100,100,6,41,4,41,4,76,104,109,44,41,65,72,77,103,102,119,33,97,43,0,0,0,0,0,0,0,0,0,0,0,0,0,0,0,0,0,0,0,0,0,0,0,0,0,0,0,0,0,0,0,0,0,0,0,0,0,0,0,0,0,0,0,0,0,0,0,0,0,0,0,0,0,0,0,0,0,0,0,0],"split_type":[0,0,0,0,0,0,0,0,0,0,0,0,0,0,0,0,0,0,0,0,0,0,0,0,0,0,0,0,0,0,0,0,0,0,0,0,0,0,0,0,0,0,0,0,0,0,0,0,0,0,0,0,0,0,0,0,0,0,0,0,0,0,0,0,0,0,0,0,0,0,0,0,0,0,0,0,0,0,0,0,0,0,0,0,0,0,0,0,0,0,0,0,0,0,0,0,0,0,0,0,0,0,0,0,0,0,0,0,0,0,0,0,0,0,0,0,0,0,0,0,0,0,0],"sum_hessian":[1.32227E5,6.3124E4,6.9103E4,1.5883E4,4.7241E4,3.4874E4,3.4229E4,1.31E4,2.783E3,2.5177E4,2.2064E4,1.516E4,1.9714E4,2.9417E4,4.812E3,5.921E3,7.179E3,2.755E3,2.8E1,1.21E2,2.5056E4,2.973E3,1.9091E4,7.604E3,7.556E3,1.8699E4,1.015E3,1.3194E4,1.6223E4,9.14E2,3.898E3,5.196E3,7.25E2,1.459E3,5.72E3,4.95E2,2.26E3,1.3E1,1.5E1,6.4E1,5.7E1,2.0181E4,4.875E3,2.8E3,1.73E2,1.6928E4,2.163E3,6.768E3,8.36E2,1.268E3,6.288E3,1.4526E4,4.173E3,1.14E2,9.01E2,1.1131E4,2.063E3,1.555E3,1.4668E4,1.71E2,7.43E2,3.46E3,4.38E2,4.397E3,7.99E2,6E2,1.25E2,1.206E3,2.53E2,5.175E3,5.45E2,3.43E2,1.52E2,3.38E2,1.922E3,3.3E1,3.1E1,4.7E1,1E1,2.0104E4,7.7E1,3.674E3,1.201E3,4.6E1,2.754E3,1.02E2,7.1E1,3.41E2,1.6587E4,1.416E3,7.47E2,6.59E2,6.109E3,6.56E2,1.8E2,1.133E3,1.35E2,1.351E3,4.937E3,4.467E3,1.0059E4,4.33E2,3.74E3,4.5E1,6.9E1,3.85E2,5.16E2,9.176E3,1.955E3,8.28E2,1.235E3,1.009E3,5.46E2,1.2E2,1.4548E4,1.12E2,5.9E1,2E1,7.23E2,3.207E3,2.53E2,3.79E2,5.9E1],"tree_param":{"num_deleted":"0","num_feature":"123","num_nodes":"123","size_leaf_vector":"1"}},{"base_weights":[3.5865733E-4,-1.0500024E-2,2.1147659E-2,-2.5914697E-2,-5.6436756E-3,1.4010004E-2,4.1145492E-2,-1.7199852E-2,-5.4223265E-2,-3.2625152E-3,-2.7225163E-2,1.977272E-2,-7.3995492E-3,1.374668E-1,3.90286E-2,-1.2670842E-3,-2.794392E-2,-5.7355132E-2,8.013871E-2,5.5858106E-3,-1.1442892E-2,-8.461478E-2,-1.884081E-2,2.7607325E-2,3.0808297E-3,-1.0066765E-1,-1.7174322E-3,-9.128138E-2,1.6977414E-1,9.312053E-2,3.5768524E-2,-1.1169472E-2,5.447963E-2,-1.2992567E-1,-2.5857536E-2,-5.4324932E-2,-1.9971365E-1,1.9398546E-1,-1.052905E-1,-2.1150732E-2,9.127412E-3,1.049727E-1,-1.2375688E-2,1.8413815E-1,-9.519217E-2,-1.5154162E-2,-1.542177E-1,3.328366E-2,-1.0251717E-2,-2.280751E-3,6.8131E-2,-1.2351671E-1,9.520212E-2,-7.620906E-2,2.1529398E-3,-5.4900018E-3,7.035882E-4,-0E0,1.9468565E-1,1.20815106E-1,-4.0250808E-2,-5.1058315E-2,3.8109146E-2,3.0631927E-4,-4.2142434E-4,-7.6554937E-4,1.294071E-3,7.787512E-4,-3.3885902E-3,9.983304E-4,-4.5331844E-4,-9.380718E-4,7.702234E-5,-3.8245474E-3,1.9993761E-4,-4.678613E-4,4.119794E-3,7.823509E-4,-4.407671E-3,1.6498547E-3,-4.5684047E-4,1.677558E-4,-5.9738534E-4,-1.304748E-3,2.4995026E-3,-5.1647885E-4,-1.1740868E-4,-0E0,5.1939157E-3,-1.8520296E-3,-3.4709327E-4,-2.627693E-5,-5.780959E-4,-3.6420438E-3,-2.5450112E-4,2.2401065E-3,4.8591892E-4,8.676827E-4,-5.326685E-4,6.482411E-4,-1.6127438E-4,-0E0,1.7221253E-3,-4.077017E-3,-1.4195802E-3,-1.8095287E-5,4.3299054E-3,-1.8911028E-3,7.1385E-4,2.1513428E-3,-4.997956E-6,6.700959E-4,-1.6693244E-3,3.6497538E-3,-0E0,2.8487467E-3,9.332334E-4,3.1001773E-3,-1.7994102E-3,-2.0621081E-3,1.0510609E-4,3.234251E-4,7.4751826E-4],"categories":[],"categories_nodes":[],"categories_segments":[],"categories_sizes":[],"default_left":[0,0,0,0,0,0,0,0,0,0,0,0,0,0,0,0,0,0,0,0,0,0,0,0,0,0,0,0,0,0,0,0,0,0,0,0,0,0,0,0,0,0,0,0,0,0,0,0,0,0,0,0,0,0,0,0,0,0,0,0,0,0,0,0,0,0,0,0,0,0,0,0,0,0,0,0,0,0,0,0,0,0,0,0,0,0,0,0,0,0,0,0,0,0,0,0,0,0,0,0,0,0,0,0,0,0,0,0,0,0,0,0,0,0,0,0,0,0,0,0,0,0,0],"id":7,"left_children":[1,3,5,7,9,11,13,15,17,19,21,23,25,27,29,31,33,35,37,39,41,43,45,47,49,51,53,55,57,59,61,63,65,67,69,71,73,75,77,79,81,83,85,87,89,91,93,95,97,99,101,103,105,107,109,-1,-1,111,113,115,117,119,121,-1,-1,-1,-1,-1,-1,-1,-1,-1,-1,-1,-1,-1,-1,-1,-1,-1,-1,-1,-1,-1,-1,-1,-1,-1,-1,-1,-1,-1,-1,-1,-1,-1,-1,-1,-1,-1,-1,-1,-1,-1,-1,-1,-1,-1,-1,-1,-1,-1,-1,-1,-1,-1,-1,-1,-1,-1,-1,-1,-1],"loss_changes":[2.9938568E1,6.473667E0,6.4251347E0,5.0334806E0,3.3641763E0,4.1617265E0,2.1980953E0,2.6881175E0,2.0137815E0,4.330589E0,3.004189E0,3.4277897E0,3.6150503E0,1.9000888E0,1.8896141E0,3.5115535E0,1.8074841E0,1.7152739E0,2.2502408E0,2.6933699E0,3.2557893E0,2.1909242E0,2.628623E0,3.8978386E0,3.0607753E0,1.7965944E0,2.0250711E0,1.2772714E0,1.1076736E0,2.4743934E0,2.2269564E0,2.6386795E0,2.7687535E0,2.9244757E0,2.3750687E0,1.5168104E0,1.1283507E0,1.3196645E0,1.2247652E0,3.164636E0,1.7769246E0,2.4811378E0,3.0487337E0,7.505543E-1,1.1022844E0,1.5688562E0,1.1822407E0,3.9305592E0,3.5376391E0,2.6750817E0,1.9553413E0,1.1556349E0,9.684565E-1,1.9480867E0,2.2845669E0,0E0,0E0,1.6432202E-1,1.2527246E0,1.6745052E0,1.6803705E0,1.4322492E0,1.6788454E0,0E0,0E0,0E0,0E0,0E0,0E0,0E0,0E0,0E0,0E0,0E0,0E0,0E0,0E0,0E0,0E0,0E0,0E0,0E0,0E0,0E0,0E0,0E0,0E0,0E0,0E0,0E0,0E0,0E0,0E0,0E0,0E0,0E0,0E0,0E0,0E0,0E0,0E0,0E0,0E0,0E0,0E0,0E0,0E0,0E0,0E0,0E0,0E0,0E0,0E0,0E0,0E0,0E0,0E0,0E0,0E0,0E0,0E0,0E0,0E0],"parents":[2147483647,0,0,1,1,2,2,3,3,4,4,5,5,6,6,7,7,8,8,9,9,10,10,11,11,12,12,13,13,14,14,15,15,16,16,17,17,18,18,19,19,20,20,21,21,22,22,23,23,24,24,25,25,26,26,27,27,28,28,29,29,30,30,31,31,32,32,33,33,34,34,35,35,36,36,37,37,38,38,39,39,40,40,41,41,42,42,43,43,44,44,45,45,46,46,47,47,48,48,49,49,50,50,51,51,52,52,53,53,54,54,57,57,58,58,59,59,60,60,61,61,62,62],"right_children":[2,4,6,8,10,12,14,16,18,20,22,24,26,28,30,32,34,36,38,40,42,44,46,48,50,52,54,56,58,60,62,64,66,68,70,72,74,76,78,80,82,84,86,88,90,92,94,96,98,100,102,104,106,108,110,-1,-1,112,114,116,118,120,122,-1,-1,-1,-1,-1,-1,-1,-1,-1,-1,-1,-1,-1,-1,-1,-1,-1,-1,-1,-1,-1,-1,-1,-1,-1,-1,-1,-1,-1,-1,-1,-1,-1,-1,-1,-1,-1,-1,-1,-1,-1,-1,-1,-1,-1,-1,-1,-1,-1,-1,-1,-1,-1,-1,-1,-1,-1,-1,-1,-1],"split_conditions":[3.3747485E-1,-4.2534432E-1,1.4789016E0,2.1880956E2,2E0,4.0822062E-1,1.375E0,-1.4520035E2,5.5E-1,1.4E0,-1.6363636E-1,3.2441148E-1,-9.425358E-1,-7.368421E-1,-4.9873587E-1,-3.7277043E-1,1.204781E3,5.3333336E-1,1.05E0,1.3901085E0,-9E0,-1.0407772E0,2.4761566E2,2.2844983E2,2.1E0,6.5E-1,4.1431624E-1,3.9E1,-7.6300776E-1,1.8787879E-1,-1.6097199E0,1.25E-1,1.29066E3,2.6403368E-1,1E-1,2.1520579E-1,1.5E0,5E0,2E-1,-3.6969697E-1,3.9186478E-1,1.1E0,-9.1208863E-1,1.87E2,1.5409836E0,-9.7057156E-2,2.83764E2,1.2857143E0,4.0355092E-1,1E0,1.2222222E0,1.3344887E0,2.6908267E-1,1.4285715E0,-2.601626E-1,-5.4900018E-3,7.035882E-4,2.2222222E-1,7.902365E-1,1.9417413E2,5.2464646E-1,-2.9032257E-1,5.9920903E-2,3.0631927E-4,-4.2142434E-4,-7.6554937E-4,1.294071E-3,7.787512E-4,-3.3885902E-3,9.983304E-4,-4.5331844E-4,-9.380718E-4,7.702234E-5,-3.8245474E-3,1.9993761E-4,-4.678613E-4,4.119794E-3,7.823509E-4,-4.407671E-3,1.6498547E-3,-4.5684047E-4,1.677558E-4,-5.9738534E-4,-1.304748E-3,2.4995026E-3,-5.1647885E-4,-1.1740868E-4,-0E0,5.1939157E-3,-1.8520296E-3,-3.4709327E-4,-2.627693E-5,-5.780959E-4,-3.6420438E-3,-2.5450112E-4,2.2401065E-3,4.8591892E-4,8.676827E-4,-5.326685E-4,6.482411E-4,-1.6127438E-4,-0E0,1.7221253E-3,-4.077017E-3,-1.4195802E-3,-1.8095287E-5,4.3299054E-3,-1.8911028E-3,7.1385E-4,2.1513428E-3,-4.997956E-6,6.700959E-4,-1.6693244E-3,3.6497538E-3,-0E0,2.8487467E-3,9.332334E-4,3.1001773E-3,-1.7994102E-3,-2.0621081E-3,1.0510609E-4,3.234251E-4,7.4751826E-4],"split_indices":[115,102,115,76,34,66,53,80,62,8,60,108,104,49,105,115,118,68,63,81,69,110,80,76,20,64,115,39,104,68,110,16,117,113,17,66,60,57,11,68,66,25,104,39,43,66,119,53,121,33,21,45,102,22,48,0,0,17,66,76,121,49,78,0,0,0,0,0,0,0,0,0,0,0,0,0,0,0,0,0,0,0,0,0,0,0,0,0,0,0,0,0,0,0,0,0,0,0,0,0,0,0,0,0,0,0,0,0,0,0,0,0,0,0,0,0,0,0,0,0,0,0,0],"split_type":[0,0,0,0,0,0,0,0,0,0,0,0,0,0,0,0,0,0,0,0,0,0,0,0,0,0,0,0,0,0,0,0,0,0,0,0,0,0,0,0,0,0,0,0,0,0,0,0,0,0,0,0,0,0,0,0,0,0,0,0,0,0,0,0,0,0,0,0,0,0,0,0,0,0,0,0,0,0,0,0,0,0,0,0,0,0,0,0,0,0,0,0,0,0,0,0,0,0,0,0,0,0,0,0,0,0,0,0,0,0,0,0,0,0,0,0,0,0,0,0,0,0,0],"sum_hessian":[1.32561E5,8.7036E4,4.5525E4,2.0786E4,6.625E4,3.3599E4,1.1926E4,1.5929E4,4.857E3,5.9722E4,6.528E3,2.6522E4,7.077E3,2.43E2,1.1683E4,6.465E3,9.464E3,4.756E3,1.01E2,2.8612E4,3.111E4,8.12E2,5.716E3,1.7996E4,8.526E3,3.93E2,6.684E3,2.5E1,2.18E2,6.41E2,1.1042E4,5.51E3,9.55E2,1.77E2,9.287E3,4.666E3,9E1,6.7E1,3.4E1,3.303E3,2.5309E4,2.36E2,3.0874E4,2.6E1,7.86E2,5.574E3,1.42E2,1.568E4,2.316E3,7.858E3,6.68E2,3.58E2,3.5E1,3.47E2,6.337E3,1.2E1,1.3E1,2.3E1,1.95E2,5.39E2,1.02E2,2.75E2,1.0767E4,1.83E3,3.68E3,1.92E2,7.63E2,5.2E1,1.25E2,2.8E2,9.007E3,4.308E3,3.58E2,8E1,1E1,1.1E1,5.6E1,1.4E1,2E1,1.84E2,3.119E3,2.4543E4,7.66E2,4.7E1,1.89E2,5.946E3,2.4928E4,1.1E1,1.5E1,5.88E2,1.98E2,3.466E3,2.108E3,8.5E1,5.7E1,3.31E2,1.5349E4,5.99E2,1.717E3,1.191E3,6.667E3,2.45E2,4.23E2,6.3E1,2.95E2,1.8E1,1.7E1,2.63E2,8.4E1,1.24E2,6.213E3,1E1,1.3E1,1.61E2,3.4E1,2.62E2,2.77E2,2E1,8.2E1,1.25E2,1.5E2,3.787E3,6.98E3],"tree_param":{"num_deleted":"0","num_feature":"123","num_nodes":"123","size_leaf_vector":"1"}},{"base_weights":[1.1735682E-3,-1.6364478E-2,1.737932E-2,-9.512154E-3,-2.797432E-2,1.1159014E-2,4.8574008E-2,-2.9612998E-2,-3.2110945E-3,-2.4354871E-2,-7.7793725E-2,1.893882E-3,1.959905E-2,3.8785763E-2,8.526419E-2,-4.5443993E-2,-1.7082838E-2,2.538388E-2,-7.7365385E-3,-2.2666583E-2,-8.587705E-2,-1.4004904E-1,-5.46472E-2,1.0260322E-2,-1.3434615E-2,2.2220725E-2,-1.7528774E-2,3.0041017E-2,6.88281E-2,4.6265703E-2,1.1484322E-1,-3.6324605E-2,-1.0322318E-1,2.6281105E-2,-2.3893E-2,8.572591E-3,6.8313524E-2,4.334152E-2,-1.01672225E-2,-1.5906096E-2,-3.760982E-2,-2.7465649E-2,-1.3843139E-1,-1.5377025E-1,-0E0,-6.831612E-2,1.3073401E-1,3.0545185E-3,3.6381435E-2,-3.860555E-2,-1.1747204E-3,3.153616E-2,1.3946168E-2,-5.55982E-2,1.4738308E-2,5.7671756E-2,1.4976766E-2,5.16794E-3,8.798483E-2,5.415894E-2,-1.765831E-1,1.277995E-1,-0E0,-6.519374E-4,1.4188412E-3,-3.4066892E-4,-2.312326E-3,-4.190451E-5,1.7402712E-3,-4.053397E-4,2.8544732E-3,4.2357142E-4,-6.1627786E-4,9.640839E-4,5.8251773E-3,-6.7758316E-4,1.014021E-3,-2.6472466E-4,1.1920481E-4,-2.0304084E-4,-1.0251963E-3,-1.4095342E-3,-4.2598962E-4,-1.5862781E-3,8.506624E-4,1.9433566E-4,-2.8760824E-3,-2.0742137E-3,-5.368066E-3,-2.578633E-3,2.8916416E-3,2.0207819E-3,-1.2267701E-3,3.624107E-3,-1.0456336E-3,4.956854E-4,-1.0090968E-4,9.6527755E-4,-2.4390014E-5,-0E0,-8.752593E-4,-5.627735E-4,1.2048214E-4,1.9448983E-3,4.6034873E-4,3.0206892E-4,-5.8994925E-4,1.0986853E-3,-1.4103561E-3,6.1124173E-4,-1.626636E-3,-1.8464103E-3,9.957008E-4,-5.8138787E-5,7.628547E-4,3.0132125E-3,-2.2620258E-4,8.701426E-5,1.6674276E-3,-4.2254498E-4,1.1399643E-3,-5.7374663E-3,-0E0,2.3105983E-3,7.6581194E-4,-1.2627027E-3,2.663652E-3],"categories":[],"categories_nodes":[],"categories_segments":[],"categories_sizes":[],"default_left":[0,0,0,0,0,0,0,0,0,0,0,0,0,0,0,0,0,0,0,0,0,0,0,0,0,0,0,0,0,0,0,0,0,0,0,0,0,0,0,0,0,0,0,0,0,0,0,0,0,0,0,0,0,0,0,0,0,0,0,0,0,0,0,0,0,0,0,0,0,0,0,0,0,0,0,0,0,0,0,0,0,0,0,0,0,0,0,0,0,0,0,0,0,0,0,0,0,0,0,0,0,0,0,0,0,0,0,0,0,0,0,0,0,0,0,0,0,0,0,0,0,0,0,0,0,0,0],"id":8,"left_children":[1,3,5,7,9,11,13,15,17,19,21,23,25,27,29,31,33,35,37,39,41,43,45,47,49,51,53,55,57,59,61,63,65,67,69,71,73,75,77,79,81,83,85,87,89,91,93,95,97,99,101,103,105,107,109,111,113,115,117,119,121,123,125,-1,-1,-1,-1,-1,-1,-1,-1,-1,-1,-1,-1,-1,-1,-1,-1,-1,-1,-1,-1,-1,-1,-1,-1,-1,-1,-1,-1,-1,-1,-1,-1,-1,-1,-1,-1,-1,-1,-1,-1,-1,-1,-1,-1,-1,-1,-1,-1,-1,-1,-1,-1,-1,-1,-1,-1,-1,-1,-1,-1,-1,-1,-1,-1],"loss_changes":[3.7682587E1,5.0126762E0,1.3299261E1,5.033848E0,4.110586E0,4.469434E0,3.9396038E0,1.805089E0,3.9325628E0,2.1389198E0,2.0046158E0,3.521771E0,2.9287624E0,2.2464237E0,2.529848E0,2.0061798E0,1.5794517E0,2.8839443E0,3.2378898E0,2.0920897E0,1.51795E0,9.909401E-1,2.8569944E0,3.3061025E0,2.9259038E0,2.1040916E0,2.4457784E0,2.835411E0,2.323104E0,1.6763449E0,2.0510807E0,2.2466435E0,1.7219477E0,1.8509436E0,1.5520089E0,2.6005347E0,1.8770585E0,2.1643744E0,2.9858801E0,2.0923717E0,3.467636E0,1.7326621E0,2.129393E0,9.5222855E-1,8.687104E-1,1.9775438E0,1.6466564E0,3.8030238E0,3.6847787E0,2.0903516E0,2.0267692E0,2.5883732E0,3.993656E0,3.9059818E0,2.854103E0,2.306203E0,2.9249635E0,1.9788862E0,2.1014013E0,1.5572469E0,1.1890149E0,1.539114E0,1.7291552E0,0E0,0E0,0E0,0E0,0E0,0E0,0E0,0E0,0E0,0E0,0E0,0E0,0E0,0E0,0E0,0E0,0E0,0E0,0E0,0E0,0E0,0E0,0E0,0E0,0E0,0E0,0E0,0E0,0E0,0E0,0E0,0E0,0E0,0E0,0E0,0E0,0E0,0E0,0E0,0E0,0E0,0E0,0E0,0E0,0E0,0E0,0E0,0E0,0E0,0E0,0E0,0E0,0E0,0E0,0E0,0E0,0E0,0E0,0E0,0E0,0E0,0E0,0E0,0E0],"parents":[2147483647,0,0,1,1,2,2,3,3,4,4,5,5,6,6,7,7,8,8,9,9,10,10,11,11,12,12,13,13,14,14,15,15,16,16,17,17,18,18,19,19,20,20,21,21,22,22,23,23,24,24,25,25,26,26,27,27,28,28,29,29,30,30,31,31,32,32,33,33,34,34,35,35,36,36,37,37,38,38,39,39,40,40,41,41,42,42,43,43,44,44,45,45,46,46,47,47,48,48,49,49,50,50,51,51,52,52,53,53,54,54,55,55,56,56,57,57,58,58,59,59,60,60,61,61,62,62],"right_children":[2,4,6,8,10,12,14,16,18,20,22,24,26,28,30,32,34,36,38,40,42,44,46,48,50,52,54,56,58,60,62,64,66,68,70,72,74,76,78,80,82,84,86,88,90,92,94,96,98,100,102,104,106,108,110,112,114,116,118,120,122,124,126,-1,-1,-1,-1,-1,-1,-1,-1,-1,-1,-1,-1,-1,-1,-1,-1,-1,-1,-1,-1,-1,-1,-1,-1,-1,-1,-1,-1,-1,-1,-1,-1,-1,-1,-1,-1,-1,-1,-1,-1,-1,-1,-1,-1,-1,-1,-1,-1,-1,-1,-1,-1,-1,-1,-1,-1,-1,-1,-1,-1,-1,-1,-1,-1],"split_conditions":[-4.0069718E-2,-1.0444744E-1,1.312838E0,-1.3693898E0,2.5320006E2,3.3189654E-1,5.998469E-2,4.9253732E-1,2.3809524E-1,5.87E2,5.9935905E-2,2.0084407E2,2.5128316E2,3.4653464E-1,6E0,1.5894573E3,2.2673537E-1,-3.983647E-1,-3.5151514E-1,5.9977185E-2,1.8446416E2,2.5E0,2.91E2,6.666667E-1,-4.64486E-2,1.5084057E-1,5.96E0,-6.334778E-1,2E-1,3.63E2,1.7142857E0,1.5690822E3,5.9960432E-2,7.5E-1,2.3333333E0,7.878788E-2,1.704255E0,-1.0421832E0,2.7011502E0,4.6036586E-1,-8.5621025E1,1.3333334E0,1.2967033E0,5.9931368E-2,9.511738E-2,5.9942316E-2,3.48E2,-1.1686534E0,4.2424243E-2,1E0,2E-1,1.2407084E3,1.7E0,1E0,3.3E0,1E-1,2.4811E2,4.4067208E-2,-1.21212125E-1,-1.2727273E-1,1.8225821E0,2E1,2.1E0,-6.519374E-4,1.4188412E-3,-3.4066892E-4,-2.312326E-3,-4.190451E-5,1.7402712E-3,-4.053397E-4,2.8544732E-3,4.2357142E-4,-6.1627786E-4,9.640839E-4,5.8251773E-3,-6.7758316E-4,1.014021E-3,-2.6472466E-4,1.1920481E-4,-2.0304084E-4,-1.0251963E-3,-1.4095342E-3,-4.2598962E-4,-1.5862781E-3,8.506624E-4,1.9433566E-4,-2.8760824E-3,-2.0742137E-3,-5.368066E-3,-2.578633E-3,2.8916416E-3,2.0207819E-3,-1.2267701E-3,3.624107E-3,-1.0456336E-3,4.956854E-4,-1.0090968E-4,9.6527755E-4,-2.4390014E-5,-0E0,-8.752593E-4,-5.627735E-4,1.2048214E-4,1.9448983E-3,4.6034873E-4,3.0206892E-4,-5.8994925E-4,1.0986853E-3,-1.4103561E-3,6.1124173E-4,-1.626636E-3,-1.8464103E-3,9.957008E-4,-5.8138787E-5,7.628547E-4,3.0132125E-3,-2.2620258E-4,8.701426E-5,1.6674276E-3,-4.2254498E-4,1.1399643E-3,-5.7374663E-3,-0E0,2.3105983E-3,7.6581194E-4,-1.2627027E-3,2.663652E-3],"split_indices":[116,66,116,116,76,41,78,41,40,39,78,77,77,41,54,74,109,116,68,79,77,33,58,13,103,108,119,107,3,39,22,74,78,15,20,60,109,104,114,67,119,47,47,78,67,78,39,109,61,4,18,74,22,72,53,26,119,104,61,61,103,72,22,0,0,0,0,0,0,0,0,0,0,0,0,0,0,0,0,0,0,0,0,0,0,0,0,0,0,0,0,0,0,0,0,0,0,0,0,0,0,0,0,0,0,0,0,0,0,0,0,0,0,0,0,0,0,0,0,0,0,0,0,0,0,0,0],"split_type":[0,0,0,0,0,0,0,0,0,0,0,0,0,0,0,0,0,0,0,0,0,0,0,0,0,0,0,0,0,0,0,0,0,0,0,0,0,0,0,0,0,0,0,0,0,0,0,0,0,0,0,0,0,0,0,0,0,0,0,0,0,0,0,0,0,0,0,0,0,0,0,0,0,0,0,0,0,0,0,0,0,0,0,0,0,0,0,0,0,0,0,0,0,0,0,0,0,0,0,0,0,0,0,0,0,0,0,0,0,0,0,0,0,0,0,0,0,0,0,0,0,0,0,0,0,0,0],"sum_hessian":[1.32579E5,6.3633E4,6.8946E4,4.0087E4,2.3546E4,5.7519E4,1.1427E4,9.517E3,3.057E4,2.1976E4,1.57E3,2.7494E4,3.0025E4,9.049E3,2.378E3,4.158E3,5.359E3,4.137E3,2.6433E4,2.141E4,5.66E2,4.1E2,1.16E3,1.7842E4,9.652E3,2.8078E4,1.947E3,7.043E3,2.006E3,1.045E3,1.333E3,3.611E3,5.47E2,7.01E2,4.658E3,2.995E3,1.142E3,1.176E3,2.5257E4,1.4802E4,6.608E3,2.8E2,2.86E2,3.82E2,2.8E1,1.087E3,7.3E1,1.4024E4,3.818E3,3.126E3,6.526E3,1.3133E4,1.4945E4,9.12E2,1.035E3,2.454E3,4.589E3,4.8E2,1.526E3,1.015E3,3E1,1.202E3,1.31E2,3.482E3,1.29E2,2.01E2,3.46E2,5.1E2,1.91E2,4.623E3,3.5E1,2.184E3,8.11E2,1.12E3,2.2E1,2.18E2,9.58E2,1.8432E4,6.825E3,1.3972E4,8.3E2,1.097E3,5.511E3,1.56E2,1.24E2,5.8E1,2.28E2,3.48E2,3.4E1,1.1E1,1.7E1,4.4E1,1.043E3,5.3E1,2E1,3.538E3,1.0486E4,2.326E3,1.492E3,9.4E2,2.186E3,1.358E3,5.168E3,3.08E2,1.2825E4,1.3588E4,1.357E3,1.86E2,7.26E2,8.69E2,1.66E2,6.8E1,2.386E3,2.92E3,1.669E3,5.2E1,4.28E2,2.85E2,1.241E3,1.73E2,8.42E2,1.6E1,1.4E1,9.57E2,2.45E2,9.1E1,4E1],"tree_param":{"num_deleted":"0","num_feature":"123","num_nodes":"127","size_leaf_vector":"1"}},{"base_weights":[-5.7359637E-5,-5.9285136E-3,2.7598944E-2,4.147924E-3,-1.2692973E-2,2.891924E-2,-7.158587E-2,1.2281069E-2,-1.2752095E-2,-1.6263502E-2,4.608999E-3,3.240174E-2,-2.7579307E-3,-1.10967964E-1,1.629453E-1,3.1468894E-2,4.8998413E-3,5.262797E-2,-1.838207E-2,-2.4788065E-3,-2.010681E-2,-5.9265643E-3,2.1357333E-2,3.8582683E-2,1.1710351E-2,-3.9564736E-2,2.7416686E-2,-0E0,-1.5212297E-1,2.6387435E-1,-0E0,3.4014132E-2,-1.24561876E-1,2.9807487E-3,7.65004E-2,2.8829647E-2,1.4673322E-1,1.5516858E-2,-2.409543E-2,1.1833361E-2,-2.0343443E-2,-3.0260522E-2,-1.380951E-2,-1.4688111E-2,2.7633412E-2,1.9443604E-1,1.8585794E-2,3.165004E-2,6.1309896E-2,-4.951248E-3,1.3148156E-2,-2.7145777E-2,-2.0774847E-1,4.0035293E-2,-8.3788805E-2,1.6484584E-1,-1.0905562E-1,-0E0,-2.1110445E-1,-0E0,6.2346365E-3,4.8582378E-4,2.7862184E-3,-3.6215323E-3,-0E0,2.1327176E-4,-1.1963392E-4,-9.7115675E-4,1.7384221E-3,7.5545814E-4,-1.1563551E-3,3.3805287E-3,-1.0939469E-3,3.523895E-4,-2.404284E-3,-6.0820434E-4,-1.2541779E-4,3.7516325E-4,-5.816132E-4,-2.3857718E-4,-1.9118385E-3,-1.9501463E-3,-4.3792825E-4,1.9557313E-3,-2.3433378E-4,2.1648426E-4,-4.0736902E-4,1.987888E-3,1.3245475E-4,-0E0,5.174178E-3,-3.2322446E-4,4.724107E-4,7.3294714E-4,2.4794773E-4,2.4874246E-4,1.2384541E-3,-1.0459659E-3,2.785445E-4,-1.6778017E-3,-0E0,-5.0062994E-3,1.3077388E-3,3.2931624E-4,1.8701454E-3,1.6411706E-3,-2.7104462E-3,4.20467E-3,-0E0,-0E0,-3.3193897E-3,-1.2653612E-3,1.4072224E-3,-0E0,-3.7899502E-3],"categories":[],"categories_nodes":[],"categories_segments":[],"categories_sizes":[],"default_left":[0,0,0,0,0,0,0,0,0,0,0,0,0,0,0,0,0,0,0,0,0,0,0,0,0,0,0,0,0,0,0,0,0,0,0,0,0,0,0,0,0,0,0,0,0,0,0,0,0,0,0,0,0,0,0,0,0,0,0,0,0,0,0,0,0,0,0,0,0,0,0,0,0,0,0,0,0,0,0,0,0,0,0,0,0,0,0,0,0,0,0,0,0,0,0,0,0,0,0,0,0,0,0,0,0,0,0,0,0,0,0,0,0,0,0],"id":9,"left_children":[1,3,5,7,9,11,13,15,17,19,21,23,25,27,29,31,33,35,37,39,41,43,45,47,49,51,53,55,57,59,-1,61,63,65,67,69,71,73,75,77,79,81,83,85,87,89,91,93,95,-1,97,99,101,103,105,107,109,111,113,-1,-1,-1,-1,-1,-1,-1,-1,-1,-1,-1,-1,-1,-1,-1,-1,-1,-1,-1,-1,-1,-1,-1,-1,-1,-1,-1,-1,-1,-1,-1,-1,-1,-1,-1,-1,-1,-1,-1,-1,-1,-1,-1,-1,-1,-1,-1,-1,-1,-1,-1,-1,-1,-1,-1,-1],"loss_changes":[2.1478306E1,7.4612427E0,2.9758034E0,6.0228653E0,4.0602846E0,2.561491E0,2.6194577E0,4.149494E0,5.176036E0,2.848878E0,1.9855831E0,2.572754E0,2.4894886E0,1.107333E0,8.287151E-1,3.130415E0,2.8427758E0,2.2445855E0,2.5444603E0,3.0595067E0,2.6537952E0,1.9788069E0,1.8042496E0,2.372858E0,1.8497926E0,1.8258137E0,1.6317058E0,1.257668E0,1.5143867E0,5.4100585E-1,0E0,3.3779726E0,1.7394801E0,2.3430023E0,2.6002338E0,1.7149618E0,3.303461E0,1.9634182E0,2.5674143E0,3.8260963E0,2.625445E0,3.5154533E0,3.7212968E0,1.7359558E0,2.425482E0,1.471528E0,1.9249758E0,2.8017893E0,2.7577276E0,0E0,1.6596651E0,2.1063924E0,2.3280833E0,1.4589378E0,1.9490659E0,4.783374E-1,6.762442E-1,3.8232622E-1,1.0244188E0,0E0,0E0,0E0,0E0,0E0,0E0,0E0,0E0,0E0,0E0,0E0,0E0,0E0,0E0,0E0,0E0,0E0,0E0,0E0,0E0,0E0,0E0,0E0,0E0,0E0,0E0,0E0,0E0,0E0,0E0,0E0,0E0,0E0,0E0,0E0,0E0,0E0,0E0,0E0,0E0,0E0,0E0,0E0,0E0,0E0,0E0,0E0,0E0,0E0,0E0,0E0,0E0,0E0,0E0,0E0,0E0],"parents":[2147483647,0,0,1,1,2,2,3,3,4,4,5,5,6,6,7,7,8,8,9,9,10,10,11,11,12,12,13,13,14,14,15,15,16,16,17,17,18,18,19,19,20,20,21,21,22,22,23,23,24,24,25,25,26,26,27,27,28,28,29,29,31,31,32,32,33,33,34,34,35,35,36,36,37,37,38,38,39,39,40,40,41,41,42,42,43,43,44,44,45,45,46,46,47,47,48,48,50,50,51,51,52,52,53,53,54,54,55,55,56,56,57,57,58,58],"right_children":[2,4,6,8,10,12,14,16,18,20,22,24,26,28,30,32,34,36,38,40,42,44,46,48,50,52,54,56,58,60,-1,62,64,66,68,70,72,74,76,78,80,82,84,86,88,90,92,94,96,-1,98,100,102,104,106,108,110,112,114,-1,-1,-1,-1,-1,-1,-1,-1,-1,-1,-1,-1,-1,-1,-1,-1,-1,-1,-1,-1,-1,-1,-1,-1,-1,-1,-1,-1,-1,-1,-1,-1,-1,-1,-1,-1,-1,-1,-1,-1,-1,-1,-1,-1,-1,-1,-1,-1,-1,-1,-1,-1,-1,-1,-1,-1],"split_conditions":[5.656825E-1,1.589369E-1,1.45E0,1.6641254E0,1.65285E3,7.0466405E-1,4.18E2,-1.0703635E2,-1.0277948E0,1E0,6E-1,2.587447E-1,2.5E-1,1.7142857E0,6.7773664E-1,1.7438346E3,2.4848485E-1,2.29E2,2.69188E-1,5.7808965E-1,3.6363637E-1,8E-1,7.5E-1,1.3137255E0,-1.125E0,2.5546564E2,4.3537646E3,2.0846005E-1,5E-1,1.9347535E-1,-0E0,6.5185183E-1,3.6486486E-1,-6.5000325E-2,-1.0106937E0,1.0220199E0,1.5E0,4.251628E3,9E0,1.3626374E0,1.4117647E0,1.3075936E3,4.2857143E-1,3.75E-1,-4.655304E-1,2E0,-5.9076774E-1,-2.4316551E-1,1.4738E3,-4.951248E-3,6.4449626E-1,-9.090909E-2,5.999199E-2,7.719298E-1,4E0,5.555556E-1,1.5447888E3,3.2294128E-2,-6.5E-1,-0E0,6.2346365E-3,4.8582378E-4,2.7862184E-3,-3.6215323E-3,-0E0,2.1327176E-4,-1.1963392E-4,-9.7115675E-4,1.7384221E-3,7.5545814E-4,-1.1563551E-3,3.3805287E-3,-1.0939469E-3,3.523895E-4,-2.404284E-3,-6.0820434E-4,-1.2541779E-4,3.7516325E-4,-5.816132E-4,-2.3857718E-4,-1.9118385E-3,-1.9501463E-3,-4.3792825E-4,1.9557313E-3,-2.3433378E-4,2.1648426E-4,-4.0736902E-4,1.987888E-3,1.3245475E-4,-0E0,5.174178E-3,-3.2322446E-4,4.724107E-4,7.3294714E-4,2.4794773E-4,2.4874246E-4,1.2384541E-3,-1.0459659E-3,2.785445E-4,-1.6778017E-3,-0E0,-5.0062994E-3,1.3077388E-3,3.2931624E-4,1.8701454E-3,1.6411706E-3,-2.7104462E-3,4.20467E-3,-0E0,-0E0,-3.3193897E-3,-1.2653612E-3,1.4072224E-3,-0E0,-3.7899502E-3],"split_indices":[111,108,64,81,117,108,38,80,107,33,28,107,11,22,121,117,61,38,122,122,41,63,4,43,49,77,96,121,8,67,0,67,41,107,104,67,4,96,54,45,42,120,22,26,107,90,104,107,120,0,111,60,78,48,50,27,118,107,63,0,0,0,0,0,0,0,0,0,0,0,0,0,0,0,0,0,0,0,0,0,0,0,0,0,0,0,0,0,0,0,0,0,0,0,0,0,0,0,0,0,0,0,0,0,0,0,0,0,0,0,0,0,0,0,0],"split_type":[0,0,0,0,0,0,0,0,0,0,0,0,0,0,0,0,0,0,0,0,0,0,0,0,0,0,0,0,0,0,0,0,0,0,0,0,0,0,0,0,0,0,0,0,0,0,0,0,0,0,0,0,0,0,0,0,0,0,0,0,0,0,0,0,0,0,0,0,0,0,0,0,0,0,0,0,0,0,0,0,0,0,0,0,0,0,0,0,0,0,0,0,0,0,0,0,0,0,0,0,0,0,0,0,0,0,0,0,0,0,0,0,0,0,0],"sum_hessian":[1.32453E5,1.09298E5,2.3155E4,4.3823E4,6.5475E4,2.2864E4,2.91E2,2.9638E4,1.4185E4,5.4338E4,1.1137E4,2.0637E4,2.227E3,2.54E2,3.7E1,8.184E3,2.1454E4,1.106E3,1.3079E4,1.1922E4,4.2416E4,6.788E3,4.349E3,1.5841E4,4.796E3,1.023E3,1.204E3,7.1E1,1.83E2,2.6E1,1.1E1,8.061E3,1.23E2,2.0912E4,5.42E2,8.94E2,2.12E2,1.853E3,1.1226E4,6.578E3,5.344E3,1.6156E4,2.626E4,5.414E3,1.374E3,6.1E1,4.288E3,1.2183E4,3.658E3,1.7E1,4.779E3,9.6E2,6.3E1,1.092E3,1.12E2,2.7E1,4.4E1,5.4E1,1.29E2,1.1E1,1.5E1,7.895E3,1.66E2,6.9E1,5.4E1,1.0527E4,1.0385E4,9.9E1,4.43E2,7.64E2,1.3E2,1.66E2,4.6E1,1.788E3,6.5E1,5.866E3,5.36E3,5.302E3,1.276E3,5.095E3,2.49E2,4E2,1.5756E4,1.92E2,2.6068E4,1.494E3,3.92E3,2.13E2,1.161E3,2.6E1,3.5E1,9.42E2,3.346E3,6.252E3,5.931E3,1.029E3,2.629E3,2.42E2,4.537E3,2.48E2,7.12E2,4.9E1,1.4E1,8.92E2,2E2,3.1E1,8.1E1,1.7E1,1E1,1.7E1,2.7E1,3.2E1,2.2E1,1.2E1,1.17E2],"tree_param":{"num_deleted":"0","num_feature":"123","num_nodes":"115","size_leaf_vector":"1"}},{"base_weights":[3.4884186E-4,-1.1651548E-2,1.7686702E-2,-2.177334E-2,-5.9101074E-3,1.0742613E-2,4.403665E-2,-9.583301E-3,-3.674635E-2,1.2876568E-2,-9.454701E-3,-2.3855916E-3,1.6495287E-2,4.9651783E-2,-0E0,-3.3180702E-2,-1.1936442E-3,4.3339472E-2,-3.8915697E-2,-2.4239395E-2,2.0687036E-2,-1.9484555E-2,-3.8042096E-3,3.5613004E-2,-1.2420619E-2,1.8485125E-2,-4.9530577E-2,-3.2633815E-2,5.2083362E-2,-1.4436573E-1,9.95458E-3,-8.373821E-2,-1.74189E-2,-5.372315E-2,3.4255884E-3,1.4880298E-1,-6.31945E-3,-4.2775985E-2,1.0093951E-2,-3.0189577E-2,2.590097E-1,6.515372E-2,1.2434019E-2,-1.0605953E-2,-4.7627486E-2,-1.03180725E-2,1.1387935E-2,-2.7929315E-2,5.4177515E-2,-2.079591E-2,1.5731508E-2,4.666923E-2,1.3992017E-2,-5.9195273E-2,2.432119E-1,-8.201301E-2,4.6794448E-2,1.297896E-1,4.8564773E-2,-0E0,-3.1642532E-1,-1.9910742E-1,1.969068E-2,-8.853968E-4,-2.7711808E-3,-3.940182E-4,9.1250037E-4,-1.6055722E-3,-2.0163407E-4,4.7809517E-4,-7.207589E-5,3.3419144E-3,-8.9312234E-4,1.5048672E-3,-1.2526583E-3,-8.253378E-4,-3.5878023E-4,2.3495313E-3,-1.8217371E-4,-3.270639E-3,-3.6943745E-4,-0E0,6.413124E-3,8.054569E-4,3.742412E-3,6.5407733E-4,-0E0,1.8761525E-6,-4.809074E-4,6.3067884E-4,-8.2417665E-4,-6.188529E-5,-3.985873E-4,2.4582687E-4,-9.617388E-4,-7.07884E-4,2.6581094E-3,1.340533E-3,-0E0,-7.147523E-6,-5.67309E-4,7.3813554E-4,-2.7185498E-4,4.0501333E-4,1.5457263E-3,2.3326522E-4,-2.024516E-3,-0E0,-1.6900294E-3,-0E0,5.1923464E-3,2.9207706E-3,-1.7503496E-3,-1.2933045E-3,1.9143383E-3,2.3043635E-3,-3.7404785E-3,8.270556E-4,-1.5031168E-4,1.0081636E-3,-3.6966377E-3,-0E0,-6.813118E-3,-1.8006236E-4,-8.397962E-3,-1.6418927E-4,1.0614949E-3],"categories":[],"categories_nodes":[],"categories_segments":[],"categories_sizes":[],"default_left":[0,0,0,0,0,0,0,0,0,0,0,0,0,0,0,0,0,0,0,0,0,0,0,0,0,0,0,0,0,0,0,0,0,0,0,0,0,0,0,0,0,0,0,0,0,0,0,0,0,0,0,0,0,0,0,0,0,0,0,0,0,0,0,0,0,0,0,0,0,0,0,0,0,0,0,0,0,0,0,0,0,0,0,0,0,0,0,0,0,0,0,0,0,0,0,0,0,0,0,0,0,0,0,0,0,0,0,0,0,0,0,0,0,0,0,0,0,0,0,0,0,0,0,0,0,0,0],"id":10,"left_children":[1,3,5,7,9,11,13,15,17,19,21,23,25,27,29,31,33,35,37,39,41,43,45,47,49,51,53,55,57,59,61,63,65,67,69,71,73,75,77,79,81,83,85,87,89,91,93,95,97,99,101,103,105,107,109,111,113,115,117,119,121,123,125,-1,-1,-1,-1,-1,-1,-1,-1,-1,-1,-1,-1,-1,-1,-1,-1,-1,-1,-1,-1,-1,-1,-1,-1,-1,-1,-1,-1,-1,-1,-1,-1,-1,-1,-1,-1,-1,-1,-1,-1,-1,-1,-1,-1,-1,-1,-1,-1,-1,-1,-1,-1,-1,-1,-1,-1,-1,-1,-1,-1,-1,-1,-1,-1],"loss_changes":[2.7587114E1,4.5130253E0,9.856537E0,5.095289E0,3.327496E0,3.2650743E0,2.834175E0,3.0472672E0,2.1884403E0,2.2805393E0,2.3582006E0,4.93674E0,3.8949718E0,2.0308132E0,1.929505E0,3.0982637E0,2.8730092E0,1.8488455E0,2.3727703E0,1.9574683E0,2.2981331E0,3.6974711E0,2.675246E0,3.2127085E0,2.443049E0,3.6050282E0,2.1814702E0,1.1135491E0,2.4294186E0,2.0930233E0,2.1441572E0,2.0884585E0,1.7374097E0,1.7380345E0,2.3195283E0,1.6383336E0,1.522519E0,2.101284E0,2.8146605E0,1.2695231E0,6.1355615E-1,2.0328035E0,1.9621477E0,2.5017152E0,1.49263E0,1.7798076E0,2.4016542E0,1.8202587E0,3.4295316E0,2.428501E0,2.435038E0,4.107891E0,2.7757463E0,2.384418E0,5.2902102E-2,1.2877536E0,9.5804876E-1,2.3404937E0,2.1960583E0,7.583918E-1,9.606724E-1,2.1640806E0,1.6899017E0,0E0,0E0,0E0,0E0,0E0,0E0,0E0,0E0,0E0,0E0,0E0,0E0,0E0,0E0,0E0,0E0,0E0,0E0,0E0,0E0,0E0,0E0,0E0,0E0,0E0,0E0,0E0,0E0,0E0,0E0,0E0,0E0,0E0,0E0,0E0,0E0,0E0,0E0,0E0,0E0,0E0,0E0,0E0,0E0,0E0,0E0,0E0,0E0,0E0,0E0,0E0,0E0,0E0,0E0,0E0,0E0,0E0,0E0,0E0,0E0,0E0,0E0,0E0,0E0],"parents":[2147483647,0,0,1,1,2,2,3,3,4,4,5,5,6,6,7,7,8,8,9,9,10,10,11,11,12,12,13,13,14,14,15,15,16,16,17,17,18,18,19,19,20,20,21,21,22,22,23,23,24,24,25,25,26,26,27,27,28,28,29,29,30,30,31,31,32,32,33,33,34,34,35,35,36,36,37,37,38,38,39,39,40,40,41,41,42,42,43,43,44,44,45,45,46,46,47,47,48,48,49,49,50,50,51,51,52,52,53,53,54,54,55,55,56,56,57,57,58,58,59,59,60,60,61,61,62,62],"right_children":[2,4,6,8,10,12,14,16,18,20,22,24,26,28,30,32,34,36,38,40,42,44,46,48,50,52,54,56,58,60,62,64,66,68,70,72,74,76,78,80,82,84,86,88,90,92,94,96,98,100,102,104,106,108,110,112,114,116,118,120,122,124,126,-1,-1,-1,-1,-1,-1,-1,-1,-1,-1,-1,-1,-1,-1,-1,-1,-1,-1,-1,-1,-1,-1,-1,-1,-1,-1,-1,-1,-1,-1,-1,-1,-1,-1,-1,-1,-1,-1,-1,-1,-1,-1,-1,-1,-1,-1,-1,-1,-1,-1,-1,-1,-1,-1,-1,-1,-1,-1,-1,-1,-1,-1,-1,-1],"split_conditions":[1.8710579E-1,-1.8234926E-1,1.312838E0,1.1428572E0,2.936508E-1,9.144239E-3,5.56E2,-1.3409108E0,1E-1,1E0,-5.026827E-1,1.3955941E3,1.25E0,-2.6666668E-1,-5.833333E-1,7.1E1,-1.34451E0,-1.5757576E-1,2.25E0,9.09369E-1,1.3108108E0,-7.704918E-2,2.7518482E0,2.6423416E-1,8.248831E-1,1E0,1.78209E3,1.0666667E0,-9.2672676E-2,2.85E2,2E-1,2.2222223E0,1.7969275E0,1.2E0,2.5E-1,7.5E-1,-3E-1,-3.142041E-1,1.3090909E0,-1.8401475E0,1.4476769E3,1.2957747E0,7.5E-1,2.5E-1,-5E0,1.1701494E-1,1.8537377E3,6E-1,1.2931035E0,3.3128834E-1,8.77795E-1,1.5893634E3,2.375E0,7.692308E-2,-2.3030303E-1,-1.0958452E-1,1.722507E3,6.25E-1,1.7142857E0,1.2E0,7E0,7.14E2,1.1777778E0,-8.853968E-4,-2.7711808E-3,-3.940182E-4,9.1250037E-4,-1.6055722E-3,-2.0163407E-4,4.7809517E-4,-7.207589E-5,3.3419144E-3,-8.9312234E-4,1.5048672E-3,-1.2526583E-3,-8.253378E-4,-3.5878023E-4,2.3495313E-3,-1.8217371E-4,-3.270639E-3,-3.6943745E-4,-0E0,6.413124E-3,8.054569E-4,3.742412E-3,6.5407733E-4,-0E0,1.8761525E-6,-4.809074E-4,6.3067884E-4,-8.2417665E-4,-6.188529E-5,-3.985873E-4,2.4582687E-4,-9.617388E-4,-7.07884E-4,2.6581094E-3,1.340533E-3,-0E0,-7.147523E-6,-5.67309E-4,7.3813554E-4,-2.7185498E-4,4.0501333E-4,1.5457263E-3,2.3326522E-4,-2.024516E-3,-0E0,-1.6900294E-3,-0E0,5.1923464E-3,2.9207706E-3,-1.7503496E-3,-1.2933045E-3,1.9143383E-3,2.3043635E-3,-3.7404785E-3,8.270556E-4,-1.5031168E-4,1.0081636E-3,-3.6966377E-3,-0E0,-6.813118E-3,-1.8006236E-4,-8.397962E-3,-1.6418927E-4,1.0614949E-3],"split_indices":[116,102,116,24,40,102,38,116,98,21,116,74,64,61,63,39,105,68,5,102,44,67,114,112,116,20,117,63,67,39,15,22,109,34,14,15,64,116,43,103,75,44,8,3,99,66,74,11,46,40,103,75,22,66,68,103,74,16,22,67,86,38,47,0,0,0,0,0,0,0,0,0,0,0,0,0,0,0,0,0,0,0,0,0,0,0,0,0,0,0,0,0,0,0,0,0,0,0,0,0,0,0,0,0,0,0,0,0,0,0,0,0,0,0,0,0,0,0,0,0,0,0,0,0,0,0,0],"split_type":[0,0,0,0,0,0,0,0,0,0,0,0,0,0,0,0,0,0,0,0,0,0,0,0,0,0,0,0,0,0,0,0,0,0,0,0,0,0,0,0,0,0,0,0,0,0,0,0,0,0,0,0,0,0,0,0,0,0,0,0,0,0,0,0,0,0,0,0,0,0,0,0,0,0,0,0,0,0,0,0,0,0,0,0,0,0,0,0,0,0,0,0,0,0,0,0,0,0,0,0,0,0,0,0,0,0,0,0,0,0,0,0,0,0,0,0,0,0,0,0,0,0,0,0,0,0,0],"sum_hessian":[1.32553E5,7.8289E4,5.4264E4,2.8252E4,5.0037E4,4.2986E4,1.1278E4,1.5622E4,1.263E4,7.883E3,4.2154E4,1.3027E4,2.9959E4,1.0021E4,1.257E3,4.056E3,1.1566E4,3.17E2,1.2313E4,1.341E3,6.542E3,1.5106E4,2.7048E4,2.694E3,1.0333E4,2.9102E4,8.57E2,2.72E2,9.749E3,8.7E1,1.17E3,9.44E2,3.112E3,9.58E2,1.0608E4,1.1E2,2.07E2,1.1439E4,8.74E2,1.318E3,2.3E1,9.99E2,5.543E3,1.1519E4,3.587E3,1.8992E4,8.056E3,5.93E2,2.101E3,8E3,2.333E3,3.961E3,2.5141E4,8.34E2,2.3E1,1.78E2,9.4E1,4.06E2,9.343E3,4.8E1,3.9E1,4.6E1,1.124E3,7.38E2,2.06E2,2.843E3,2.69E2,4.25E2,5.33E2,2.468E3,8.14E3,8.9E1,2.1E1,7.9E1,1.28E2,7.679E3,3.76E3,1.26E2,7.48E2,4.1E1,1.277E3,1E1,1.3E1,9.31E2,6.8E1,1.635E3,3.908E3,7.445E3,4.074E3,1.68E2,3.419E3,1.3377E4,5.615E3,7.63E3,4.26E2,5.52E2,4.1E1,1.325E3,7.76E2,3.461E3,4.539E3,1.221E3,1.112E3,2.833E3,1.128E3,2.5007E4,1.34E2,3.73E2,4.61E2,1E1,1.3E1,1.3E1,1.65E2,2.8E1,6.6E1,3.92E2,1.4E1,8.771E3,5.72E2,3.7E1,1.1E1,1.3E1,2.6E1,3.2E1,1.4E1,6.72E2,4.52E2],"tree_param":{"num_deleted":"0","num_feature":"123","num_nodes":"127","size_leaf_vector":"1"}},{"base_weights":[2.1774965E-4,-1.2671934E-2,1.5777864E-2,-2.8555393E-2,-8.011494E-3,1.1851528E-2,5.726058E-2,-2.1611337E-2,-5.21893E-2,-1.6529423E-3,-1.8738037E-2,7.602009E-3,2.9475465E-2,1.5480119E-1,5.2475784E-2,-1.4354023E-2,-5.9053272E-2,-5.9612613E-2,3.3799935E-2,-1.0726908E-2,7.6110805E-3,-1.539411E-2,-7.453482E-2,-6.6991146E-5,1.8703837E-2,5.4132447E-2,1.9640245E-2,2.812338E-1,7.0371665E-2,5.5069093E-2,-1.1082815E-1,-4.4308152E-2,-3.1705487E-3,-4.8018724E-2,-1.6169514E-1,-6.597276E-2,5.2259713E-2,2.0599273E-1,-0E0,-1.2037882E-2,8.875419E-2,-2.8211445E-2,1.2136675E-2,-1.9354474E-2,2.4013044E-2,-9.024335E-2,6.476296E-2,1.9232363E-2,-5.096438E-3,1.4543423E-2,5.1370405E-2,7.5009435E-2,2.0906756E-2,1.3008564E-3,3.2456018E-2,3.4863928E-1,-0E0,1.7588239E-3,2.7546248E-1,1.2756865E-1,5.071279E-2,1.8541153E-3,-3.1176504E-1,-4.941883E-4,-1.7677689E-3,1.2823617E-3,-1.0304605E-4,-1.1607308E-3,1.1764155E-4,-3.6398114E-3,-0E0,-4.9472208E-5,-1.1589834E-3,-1.2137714E-3,2.1120247E-3,-0E0,5.1374766E-3,-1.7030337E-3,1.0876345E-3,-2.1994229E-4,7.83382E-4,5.828783E-4,3.93659E-3,-6.264816E-4,1.0606901E-3,2.7873946E-4,-2.0951265E-4,-1.8330113E-4,-6.776244E-4,-6.630085E-4,7.901964E-4,-1.6466599E-3,5.570706E-4,2.6978096E-3,-1.6593904E-4,-3.7940388E-4,4.7421848E-4,-1.9544011E-4,2.5671403E-4,-2.0672836E-4,2.999566E-4,-5.4287206E-4,1.0907281E-3,1.0099085E-3,3.2494483E-3,8.2645554E-4,-5.462043E-4,1.0170349E-4,-2.2639176E-3,1.2524767E-3,3.0579875E-4,-0E0,6.475521E-3,1.4360071E-3,-2.8409022E-3,-0E0,5.4204375E-3,2.396875E-3,2.3953867E-4,9.77609E-4,3.6944813E-4,-1.5191624E-3,1.2403127E-3,-8.720842E-3,-0E0],"categories":[],"categories_nodes":[],"categories_segments":[],"categories_sizes":[],"default_left":[0,0,0,0,0,0,0,0,0,0,0,0,0,0,0,0,0,0,0,0,0,0,0,0,0,0,0,0,0,0,0,0,0,0,0,0,0,0,0,0,0,0,0,0,0,0,0,0,0,0,0,0,0,0,0,0,0,0,0,0,0,0,0,0,0,0,0,0,0,0,0,0,0,0,0,0,0,0,0,0,0,0,0,0,0,0,0,0,0,0,0,0,0,0,0,0,0,0,0,0,0,0,0,0,0,0,0,0,0,0,0,0,0,0,0,0,0,0,0,0,0,0,0,0,0],"id":11,"left_children":[1,3,5,7,9,11,13,15,17,19,21,23,25,27,29,31,33,35,37,39,41,43,45,47,49,51,53,55,57,59,61,63,65,67,69,71,73,75,77,79,81,83,85,87,89,91,93,95,97,99,101,103,105,107,109,111,-1,113,115,117,119,121,123,-1,-1,-1,-1,-1,-1,-1,-1,-1,-1,-1,-1,-1,-1,-1,-1,-1,-1,-1,-1,-1,-1,-1,-1,-1,-1,-1,-1,-1,-1,-1,-1,-1,-1,-1,-1,-1,-1,-1,-1,-1,-1,-1,-1,-1,-1,-1,-1,-1,-1,-1,-1,-1,-1,-1,-1,-1,-1,-1,-1,-1,-1],"loss_changes":[2.6514791E1,5.299614E0,9.670126E0,2.5815048E0,3.787193E0,4.0535855E0,2.1305485E0,3.3431983E0,2.373024E0,2.9619954E0,3.7497253E0,3.787677E0,2.4685717E0,1.9683895E0,2.0120516E0,3.4998074E0,2.0170364E0,2.4281511E0,1.763469E0,2.2261863E0,2.7897053E0,3.0504112E0,2.550243E0,2.5117838E0,2.3764787E0,1.9394503E0,1.7422931E0,1.4216747E0,1.645666E0,1.2976484E0,1.9727972E0,2.321587E0,2.118217E0,2.7098532E0,2.211576E0,1.4351263E0,1.8851157E0,1.5385759E0,1.7309914E0,2.0489306E0,1.4467738E0,2.0755384E0,2.1872766E0,3.183463E0,3.049894E0,1.9624662E0,1.0789843E0,2.5208106E0,3.237997E0,2.013951E0,3.1328712E0,2.223898E0,2.0830219E0,2.188612E0,2.5897875E0,1.3209286E0,0E0,1.706092E0,1.3515139E-1,4.915347E-1,1.3093834E0,2.7914217E-1,1.7825675E0,0E0,0E0,0E0,0E0,0E0,0E0,0E0,0E0,0E0,0E0,0E0,0E0,0E0,0E0,0E0,0E0,0E0,0E0,0E0,0E0,0E0,0E0,0E0,0E0,0E0,0E0,0E0,0E0,0E0,0E0,0E0,0E0,0E0,0E0,0E0,0E0,0E0,0E0,0E0,0E0,0E0,0E0,0E0,0E0,0E0,0E0,0E0,0E0,0E0,0E0,0E0,0E0,0E0,0E0,0E0,0E0,0E0,0E0,0E0,0E0,0E0,0E0],"parents":[2147483647,0,0,1,1,2,2,3,3,4,4,5,5,6,6,7,7,8,8,9,9,10,10,11,11,12,12,13,13,14,14,15,15,16,16,17,17,18,18,19,19,20,20,21,21,22,22,23,23,24,24,25,25,26,26,27,27,28,28,29,29,30,30,31,31,32,32,33,33,34,34,35,35,36,36,37,37,38,38,39,39,40,40,41,41,42,42,43,43,44,44,45,45,46,46,47,47,48,48,49,49,50,50,51,51,52,52,53,53,54,54,55,55,57,57,58,58,59,59,60,60,61,61,62,62],"right_children":[2,4,6,8,10,12,14,16,18,20,22,24,26,28,30,32,34,36,38,40,42,44,46,48,50,52,54,56,58,60,62,64,66,68,70,72,74,76,78,80,82,84,86,88,90,92,94,96,98,100,102,104,106,108,110,112,-1,114,116,118,120,122,124,-1,-1,-1,-1,-1,-1,-1,-1,-1,-1,-1,-1,-1,-1,-1,-1,-1,-1,-1,-1,-1,-1,-1,-1,-1,-1,-1,-1,-1,-1,-1,-1,-1,-1,-1,-1,-1,-1,-1,-1,-1,-1,-1,-1,-1,-1,-1,-1,-1,-1,-1,-1,-1,-1,-1,-1,-1,-1,-1,-1,-1,-1],"split_conditions":[9.742139E-2,-4.2534432E-1,1.8420318E0,2.213531E2,-6.666667E-2,6.4449626E-1,1.7741545E-1,-5.1948052E-2,4.8656604E-1,4.2897102E-1,2.5759247E2,3.4579438E-1,5E-1,1.44362E3,1.2696568E0,-7.2765523E-1,2.7518482E0,5.591157E-1,-2.5454545E-1,3.073211E2,-1.391698E0,2E-1,5.999783E-2,-1.1686534E0,2E0,6.688097E-1,3.181818E-1,2.7755576E-17,2E-1,6.8292683E-1,6.0606062E-2,1.1978022E0,2.025376E3,2.1527332E-1,1.07E2,1.24308E3,-6.2676054E-1,-3.6904526E2,3.0358108E3,1.835675E3,4.5657996E-2,2E0,3.8509884E-1,3E0,7.8E1,7.777778E-1,1.4E0,-1.2845616E0,9.043492E-1,-2.4316551E-1,6.666667E-1,1.45E0,1.5633197E3,2E1,4.0749207E-1,5.0859106E-1,-0E0,2.8898784E3,2.1958037E3,3.3716616E3,1E1,2E-1,1.6969697E-1,-4.941883E-4,-1.7677689E-3,1.2823617E-3,-1.0304605E-4,-1.1607308E-3,1.1764155E-4,-3.6398114E-3,-0E0,-4.9472208E-5,-1.1589834E-3,-1.2137714E-3,2.1120247E-3,-0E0,5.1374766E-3,-1.7030337E-3,1.0876345E-3,-2.1994229E-4,7.83382E-4,5.828783E-4,3.93659E-3,-6.264816E-4,1.0606901E-3,2.7873946E-4,-2.0951265E-4,-1.8330113E-4,-6.776244E-4,-6.630085E-4,7.901964E-4,-1.6466599E-3,5.570706E-4,2.6978096E-3,-1.6593904E-4,-3.7940388E-4,4.7421848E-4,-1.9544011E-4,2.5671403E-4,-2.0672836E-4,2.999566E-4,-5.4287206E-4,1.0907281E-3,1.0099085E-3,3.2494483E-3,8.2645554E-4,-5.462043E-4,1.0170349E-4,-2.2639176E-3,1.2524767E-3,3.0579875E-4,-0E0,6.475521E-3,1.4360071E-3,-2.8409022E-3,-0E0,5.4204375E-3,2.396875E-3,2.3953867E-4,9.77609E-4,3.6944813E-4,-1.5191624E-3,1.2403127E-3,-8.720842E-3,-0E0],"split_indices":[116,102,116,76,67,111,67,67,104,111,76,41,28,118,107,103,114,121,68,76,104,61,78,109,87,121,41,100,97,44,68,42,96,67,39,117,116,80,96,120,103,25,109,71,39,28,9,104,116,102,36,65,75,72,121,111,0,96,96,96,50,3,68,0,0,0,0,0,0,0,0,0,0,0,0,0,0,0,0,0,0,0,0,0,0,0,0,0,0,0,0,0,0,0,0,0,0,0,0,0,0,0,0,0,0,0,0,0,0,0,0,0,0,0,0,0,0,0,0,0,0,0,0,0,0],"split_type":[0,0,0,0,0,0,0,0,0,0,0,0,0,0,0,0,0,0,0,0,0,0,0,0,0,0,0,0,0,0,0,0,0,0,0,0,0,0,0,0,0,0,0,0,0,0,0,0,0,0,0,0,0,0,0,0,0,0,0,0,0,0,0,0,0,0,0,0,0,0,0,0,0,0,0,0,0,0,0,0,0,0,0,0,0,0,0,0,0,0,0,0,0,0,0,0,0,0,0,0,0,0,0,0,0,0,0,0,0,0,0,0,0,0,0,0,0,0,0,0,0,0,0,0,0],"sum_hessian":[1.3218E5,7.2247E4,5.9933E4,1.6325E4,5.5922E4,5.478E4,5.153E3,1.2661E4,3.664E3,3.5187E4,2.0735E4,4.4198E4,1.0582E4,2.28E2,4.925E3,1.0635E4,2.026E3,3.387E3,2.77E2,1.7848E4,1.7339E4,1.9585E4,1.15E3,2.607E4,1.8128E4,2.979E3,7.603E3,8.5E1,1.43E2,4.856E3,6.9E1,2.859E3,7.776E3,1.841E3,1.85E2,3.216E3,1.71E2,4.9E1,2.28E2,1.7629E4,2.19E2,1.912E3,1.5427E4,1.7827E4,1.758E3,1.042E3,1.08E2,5.335E3,2.0735E4,1.6116E4,2.012E3,1.805E3,1.174E3,3.17E3,4.433E3,6.7E1,1.8E1,1.12E2,3.1E1,2.58E2,4.598E3,4E1,2.9E1,2.418E3,4.41E2,2.83E2,7.493E3,1.275E3,5.66E2,1.32E2,5.3E1,3.66E2,2.85E3,6E1,1.11E2,1.5E1,3.4E1,9.3E1,1.35E2,1.7117E4,5.12E2,1.72E2,4.7E1,1.718E3,1.94E2,1.2703E4,2.724E3,1.3485E4,4.342E3,4.84E2,1.274E3,9.45E2,9.7E1,5.2E1,5.6E1,1.046E3,4.289E3,1.55E4,5.235E3,2.213E3,1.3903E4,3.34E2,1.678E3,1.676E3,1.29E2,7.64E2,4.1E2,3.07E3,1E2,9.4E2,3.493E3,1.1E1,5.6E1,8E1,3.2E1,1E1,2.1E1,2.02E2,5.6E1,3.212E3,1.386E3,1E1,3E1,1.5E1,1.4E1],"tree_param":{"num_deleted":"0","num_feature":"123","num_nodes":"125","size_leaf_vector":"1"}},{"base_weights":[3.5744338E-4,-1.1593705E-2,2.0221978E-2,-1.6457373E-2,3.8646858E-3,1.1413848E-2,4.0515132E-2,-4.362091E-2,-1.319994E-2,1.0324796E-1,1.2323869E-3,2.5189178E-2,7.039355E-4,1.6698478E-2,4.8570536E-2,5.9453942E-2,-4.8812516E-2,-9.736894E-3,-3.6737215E-2,6.41139E-2,2.347164E-1,-2.5403991E-2,1.2113621E-2,4.332204E-2,1.0140527E-2,-9.675805E-3,2.6507577E-2,9.804785E-2,8.700537E-3,3.8303062E-2,7.5206615E-2,1.0746688E-1,-1.5745157E-1,3.2576807E-2,-5.287084E-2,-2.961423E-2,-6.021124E-3,-4.022414E-2,5.046624E-2,1.5170935E-1,-1.4150236E-2,-0E0,3.2523966E-1,-8.565676E-2,-1.170014E-2,3.924074E-2,-0E0,7.3167965E-2,3.176654E-2,-1.2505318E-1,1.3002809E-2,-5.0389003E-3,-6.9598496E-2,5.2794978E-2,4.60119E-3,-1.6806617E-2,1.2967335E-1,6.317752E-2,-1.1205493E-3,2.6298515E-2,5.62023E-2,8.799007E-2,-0E0,2.179648E-3,-9.946487E-4,-3.928519E-3,1.3738017E-3,1.6639087E-3,-9.2425E-4,-1.6883184E-3,-7.175564E-4,-8.444317E-4,-1.29388E-4,4.1070193E-4,-1.3392245E-4,-1.7068813E-3,-5.582443E-4,1.584419E-3,-1.1798083E-3,-7.395853E-5,3.47893E-3,4.13135E-4,-2.9993632E-3,-1.488326E-3,3.9982973E-3,6.9320663E-3,1.7732086E-3,-1.5788339E-3,5.082345E-4,-0E0,-9.3926553E-4,9.806862E-4,1.5696908E-4,1.9962518E-3,-7.270231E-5,1.2950418E-3,-1.747815E-3,1.0274552E-4,7.7588594E-4,-3.7694299E-3,-0E0,1.5200087E-3,1.2482813E-4,-2.2293195E-4,3.0455468E-4,-3.1132382E-4,-1.8641038E-3,1.2690062E-3,4.0891924E-4,2.5913146E-4,-1.1161794E-3,-5.9752753E-3,6.9062517E-4,-0E0,2.630722E-3,1.7596623E-3,-6.462581E-5,-3.2597375E-3,7.8103316E-5,3.1754287E-4,1.4015229E-3,2.483957E-3,7.1226683E-4,1.4766842E-3,-2.3474259E-4,3.762742E-4,-3.1967997E-3],"categories":[],"categories_nodes":[],"categories_segments":[],"categories_sizes":[],"default_left":[0,0,0,0,0,0,0,0,0,0,0,0,0,0,0,0,0,0,0,0,0,0,0,0,0,0,0,0,0,0,0,0,0,0,0,0,0,0,0,0,0,0,0,0,0,0,0,0,0,0,0,0,0,0,0,0,0,0,0,0,0,0,0,0,0,0,0,0,0,0,0,0,0,0,0,0,0,0,0,0,0,0,0,0,0,0,0,0,0,0,0,0,0,0,0,0,0,0,0,0,0,0,0,0,0,0,0,0,0,0,0,0,0,0,0,0,0,0,0,0,0,0,0,0,0,0,0],"id":12,"left_children":[1,3,5,7,9,11,13,15,17,19,21,23,25,27,29,31,33,35,37,39,41,43,45,47,49,51,53,55,57,59,61,63,65,67,69,71,73,75,77,79,81,83,85,87,89,91,93,95,97,99,101,103,105,107,109,111,113,115,117,119,121,123,125,-1,-1,-1,-1,-1,-1,-1,-1,-1,-1,-1,-1,-1,-1,-1,-1,-1,-1,-1,-1,-1,-1,-1,-1,-1,-1,-1,-1,-1,-1,-1,-1,-1,-1,-1,-1,-1,-1,-1,-1,-1,-1,-1,-1,-1,-1,-1,-1,-1,-1,-1,-1,-1,-1,-1,-1,-1,-1,-1,-1,-1,-1,-1,-1],"loss_changes":[3.1470306E1,6.2339716E0,8.835981E0,5.4964256E0,5.022195E0,5.097659E0,2.7977428E0,3.5707722E0,4.5250196E0,2.15626E0,5.5559826E0,4.066311E0,5.2782784E0,2.3577986E0,2.9105968E0,3.1523333E0,2.1375341E0,3.5794234E0,2.1660738E0,2.8558612E0,1.9889202E0,4.4471674E0,4.4587593E0,2.2187405E0,3.0732236E0,3.7795446E0,3.186888E0,1.3444908E0,1.9611307E0,1.6342802E0,2.929657E0,1.4602346E0,1.3627E0,1.9823005E0,2.2227783E0,3.8601336E0,3.2749918E0,2.061245E0,1.6741624E0,2.3627505E0,1.6266569E0,8.9745533E-1,1.0755239E0,1.8241467E0,2.5190992E0,2.7346106E0,5.6718273E0,3.0871716E0,2.1161122E0,2.4909406E0,3.3224778E0,2.875561E0,2.2025971E0,1.7576094E0,2.7161057E0,1.8078465E0,1.284234E0,1.9612598E0,3.9645243E0,1.7414722E0,3.3132954E0,1.6602917E0,2.1264348E0,0E0,0E0,0E0,0E0,0E0,0E0,0E0,0E0,0E0,0E0,0E0,0E0,0E0,0E0,0E0,0E0,0E0,0E0,0E0,0E0,0E0,0E0,0E0,0E0,0E0,0E0,0E0,0E0,0E0,0E0,0E0,0E0,0E0,0E0,0E0,0E0,0E0,0E0,0E0,0E0,0E0,0E0,0E0,0E0,0E0,0E0,0E0,0E0,0E0,0E0,0E0,0E0,0E0,0E0,0E0,0E0,0E0,0E0,0E0,0E0,0E0,0E0,0E0,0E0],"parents":[2147483647,0,0,1,1,2,2,3,3,4,4,5,5,6,6,7,7,8,8,9,9,10,10,11,11,12,12,13,13,14,14,15,15,16,16,17,17,18,18,19,19,20,20,21,21,22,22,23,23,24,24,25,25,26,26,27,27,28,28,29,29,30,30,31,31,32,32,33,33,34,34,35,35,36,36,37,37,38,38,39,39,40,40,41,41,42,42,43,43,44,44,45,45,46,46,47,47,48,48,49,49,50,50,51,51,52,52,53,53,54,54,55,55,56,56,57,57,58,58,59,59,60,60,61,61,62,62],"right_children":[2,4,6,8,10,12,14,16,18,20,22,24,26,28,30,32,34,36,38,40,42,44,46,48,50,52,54,56,58,60,62,64,66,68,70,72,74,76,78,80,82,84,86,88,90,92,94,96,98,100,102,104,106,108,110,112,114,116,118,120,122,124,126,-1,-1,-1,-1,-1,-1,-1,-1,-1,-1,-1,-1,-1,-1,-1,-1,-1,-1,-1,-1,-1,-1,-1,-1,-1,-1,-1,-1,-1,-1,-1,-1,-1,-1,-1,-1,-1,-1,-1,-1,-1,-1,-1,-1,-1,-1,-1,-1,-1,-1,-1,-1,-1,-1,-1,-1,-1,-1,-1,-1,-1,-1,-1,-1],"split_conditions":[2.6382488E-1,1.5270062E-1,1.1283689E0,1.1834862E0,-5.2380955E-1,1.2830317E-1,5.9910905E-2,-6.086956E-1,2.332653E2,1.7435898E0,-3.3408436E-1,-3.1852357E-2,1.0368223E0,-1E0,1.9588165E0,2.41E2,7.3333335E-1,-1.3693898E0,2.7272728E-1,2.707499E-1,2.9E1,5.1E1,-2.012651E-3,-5.833333E-1,1.25E-1,1.8333334E0,4.1666666E-1,1.3606884E3,5.5128205E-1,1.2E0,8.967367E-2,-1.1915744E-1,-3.3374843E-1,1.9091617E-1,9.583333E-1,4.9253732E-1,2.3809524E-1,-1.1462203E0,6.163425E-1,3.75E-1,6.075168E-1,1.4836257E3,6.5790945E-1,3E0,3.32E2,1.2528735E0,1.2934117E3,6.287297E-1,3.1707317E-1,2.8990877E-1,1.027027E0,1.4E0,1.8994913E-1,2.857143E-1,3E-1,4.6334293E-1,1.4915767E0,5.555556E-1,-8.9622104E-1,1.4756885E0,3.75E-1,1.8888888E0,7.1428573E-1,2.179648E-3,-9.946487E-4,-3.928519E-3,1.3738017E-3,1.6639087E-3,-9.2425E-4,-1.6883184E-3,-7.175564E-4,-8.444317E-4,-1.29388E-4,4.1070193E-4,-1.3392245E-4,-1.7068813E-3,-5.582443E-4,1.584419E-3,-1.1798083E-3,-7.395853E-5,3.47893E-3,4.13135E-4,-2.9993632E-3,-1.488326E-3,3.9982973E-3,6.9320663E-3,1.7732086E-3,-1.5788339E-3,5.082345E-4,-0E0,-9.3926553E-4,9.806862E-4,1.5696908E-4,1.9962518E-3,-7.270231E-5,1.2950418E-3,-1.747815E-3,1.0274552E-4,7.7588594E-4,-3.7694299E-3,-0E0,1.5200087E-3,1.2482813E-4,-2.2293195E-4,3.0455468E-4,-3.1132382E-4,-1.8641038E-3,1.2690062E-3,4.0891924E-4,2.5913146E-4,-1.1161794E-3,-5.9752753E-3,6.9062517E-4,-0E0,2.630722E-3,1.7596623E-3,-6.462581E-5,-3.2597375E-3,7.8103316E-5,3.1754287E-4,1.4015229E-3,2.483957E-3,7.1226683E-4,1.4766842E-3,-2.3474259E-4,3.762742E-4,-3.1967997E-3],"split_indices":[116,115,116,47,66,66,78,67,77,43,116,104,115,69,116,39,47,116,61,102,58,39,67,63,31,22,66,75,67,36,107,103,66,108,47,41,40,110,84,29,84,74,122,99,39,45,74,84,40,108,43,36,105,27,98,66,81,28,104,104,31,22,28,0,0,0,0,0,0,0,0,0,0,0,0,0,0,0,0,0,0,0,0,0,0,0,0,0,0,0,0,0,0,0,0,0,0,0,0,0,0,0,0,0,0,0,0,0,0,0,0,0,0,0,0,0,0,0,0,0,0,0,0,0,0,0,0],"split_type":[0,0,0,0,0,0,0,0,0,0,0,0,0,0,0,0,0,0,0,0,0,0,0,0,0,0,0,0,0,0,0,0,0,0,0,0,0,0,0,0,0,0,0,0,0,0,0,0,0,0,0,0,0,0,0,0,0,0,0,0,0,0,0,0,0,0,0,0,0,0,0,0,0,0,0,0,0,0,0,0,0,0,0,0,0,0,0,0,0,0,0,0,0,0,0,0,0,0,0,0,0,0,0,0,0,0,0,0,0,0,0,0,0,0,0,0,0,0,0,0,0,0,0,0,0,0,0],"sum_hessian":[1.32512E5,8.2694E4,4.9818E4,6.2968E4,1.9726E4,3.4785E4,1.5033E4,6.699E3,5.6269E4,4.96E2,1.923E4,1.5161E4,1.9624E4,3.841E3,1.1192E4,3.09E2,6.39E3,4.9101E4,7.168E3,3.9E2,1.06E2,5.542E3,1.3688E4,6.836E3,8.325E3,1.3958E4,5.666E3,3.29E2,3.512E3,8.114E3,3.078E3,2.58E2,5.1E1,2.88E2,6.102E3,7.677E3,4.1424E4,6.907E3,2.61E2,1.92E2,1.98E2,3.2E1,7.4E1,1.009E3,4.533E3,4.2E3,9.488E3,1.876E3,4.96E3,1.63E2,8.162E3,1.2976E4,9.82E2,2.548E3,3.118E3,6.2E1,2.67E2,5.57E2,2.955E3,4.901E3,3.213E3,2.627E3,4.51E2,2.25E2,3.3E1,4.1E1,1E1,1.68E2,1.2E2,7.03E2,5.399E3,3.59E3,4.087E3,2.934E3,3.849E4,4.35E2,6.472E3,1.94E2,6.7E1,5.3E1,1.39E2,1.55E2,4.3E1,2.1E1,1.1E1,4.4E1,3E1,9.08E2,1.01E2,3.65E3,8.83E2,2.326E3,1.874E3,3.41E2,9.147E3,1.795E3,8.1E1,2.061E3,2.899E3,8.8E1,7.5E1,4.53E2,7.709E3,9.484E3,3.492E3,4.99E2,4.83E2,1.228E3,1.32E3,2.71E3,4.08E2,1.2E1,5E1,6E1,2.07E2,3.35E2,2.22E2,9.1E1,2.864E3,4.483E3,4.18E2,3.02E2,2.911E3,2.5E3,1.27E2,4.05E2,4.6E1],"tree_param":{"num_deleted":"0","num_feature":"123","num_nodes":"127","size_leaf_vector":"1"}},{"base_weights":[-3.6774075E-4,-4.8721205E-3,3.432359E-2,-7.821313E-3,1.6331736E-2,2.7685413E-2,6.711246E-2,-4.823889E-3,-2.8894156E-2,1.3875497E-2,9.571197E-2,1.7237689E-1,2.5594251E-2,1.5719782E-1,5.4745775E-2,-1.22753745E-2,2.3669472E-3,-3.4223612E-2,6.8085897E-3,-4.3392494E-2,1.6538128E-2,3.4288157E-2,1.498456E-1,1.9371485E-2,2.2987424E-1,2.9941794E-2,-1.984438E-2,2.1347387E-1,-0E0,4.4335864E-2,1.3734615E-1,-9.700911E-3,-3.7760355E-2,-4.365796E-3,2.1307126E-2,-1.3124532E-1,-3.2234788E-2,1.4679196E-2,-1.4656499E-1,-5.9649978E-2,1.5313989E-1,1.8190657E-3,2.55445E-2,-4.0174928E-3,6.942309E-2,-1.2068959E-3,1.6806352E-1,-1.4862198E-1,1.8127193E-1,-0E0,2.5715318E-1,8.552615E-2,2.6884284E-2,-5.6195162E-2,5.677725E-2,2.4102375E-1,-0E0,7.8733474E-2,-2.1452755E-1,7.14726E-2,1.3603889E-2,1.6510154E-1,-9.480284E-2,2.3778817E-5,-2.429929E-4,-8.3681056E-4,1.1190948E-4,-1.6646387E-4,2.3163504E-4,-1.9110004E-4,4.6661988E-4,-2.698595E-3,-0E0,-3.7895396E-4,-8.2688004E-4,-4.659058E-5,1.3399014E-3,-0E0,-4.9038655E-3,-1.4126907E-3,8.1664807E-4,3.8328134E-3,-0E0,3.116615E-4,-3.3297585E-4,4.8494764E-4,-3.3450878E-4,3.449158E-3,2.6142984E-4,-2.144329E-4,2.945612E-3,-0E0,-5.324421E-3,-0E0,3.9961324E-3,4.9420036E-3,1.3089901E-3,3.1077294E-3,6.8341586E-4,-2.5325802E-3,4.3939988E-4,-3.517775E-3,-4.835749E-4,-4.440317E-4,1.8343017E-3,4.020402E-3,-0E0,-0E0,3.9982256E-3,-6.202487E-3,-0E0,-8.436282E-4,1.3564184E-3,5.237622E-4,-1.4150013E-3,4.9232496E-3,1.544897E-3,-0E0,-3.4652262E-3],"categories":[],"categories_nodes":[],"categories_segments":[],"categories_sizes":[],"default_left":[0,0,0,0,0,0,0,0,0,0,0,0,0,0,0,0,0,0,0,0,0,0,0,0,0,0,0,0,0,0,0,0,0,0,0,0,0,0,0,0,0,0,0,0,0,0,0,0,0,0,0,0,0,0,0,0,0,0,0,0,0,0,0,0,0,0,0,0,0,0,0,0,0,0,0,0,0,0,0,0,0,0,0,0,0,0,0,0,0,0,0,0,0,0,0,0,0,0,0,0,0,0,0,0,0,0,0,0,0,0,0,0,0,0,0,0,0,0,0],"id":13,"left_children":[1,3,5,7,9,11,13,15,17,19,21,23,25,27,29,31,33,35,37,39,41,43,45,47,49,51,53,55,57,59,61,63,65,67,69,71,73,75,77,79,81,83,85,-1,87,-1,89,91,93,-1,95,97,99,101,103,105,-1,107,109,111,113,115,117,-1,-1,-1,-1,-1,-1,-1,-1,-1,-1,-1,-1,-1,-1,-1,-1,-1,-1,-1,-1,-1,-1,-1,-1,-1,-1,-1,-1,-1,-1,-1,-1,-1,-1,-1,-1,-1,-1,-1,-1,-1,-1,-1,-1,-1,-1,-1,-1,-1,-1,-1,-1,-1,-1,-1,-1],"loss_changes":[2.061399E1,7.3060627E0,3.1731434E0,6.447402E0,2.630072E0,3.5615778E0,2.5246058E0,4.8374596E0,2.4611635E0,2.0721076E0,1.1229208E0,1.1746078E0,2.4759884E0,2.5160532E0,1.674408E0,2.8441787E0,5.8537545E0,1.9294977E0,1.7847282E0,1.7680095E0,1.7176311E0,1.8286667E0,9.753208E-1,1.4856365E0,8.405223E-1,1.789319E0,2.9572737E0,1.5635052E0,1.2808743E0,1.5486763E0,1.6075993E0,2.6043227E0,2.830546E0,3.9787748E0,3.3723164E0,1.1669505E0,1.7062197E0,2.0352547E0,1.3837016E0,1.9019861E0,3.8853246E-1,2.0927644E0,2.0117574E0,0E0,1.1577351E0,0E0,9.072976E-1,7.7244437E-1,3.3344615E-1,0E0,5.2844286E-1,2.3754625E0,1.8788528E0,2.7829082E0,1.7900805E0,7.1663857E-1,0E0,1.1232787E0,6.3190067E-1,1.9375324E0,1.8699896E0,1.5810399E0,3.0486843E-1,0E0,0E0,0E0,0E0,0E0,0E0,0E0,0E0,0E0,0E0,0E0,0E0,0E0,0E0,0E0,0E0,0E0,0E0,0E0,0E0,0E0,0E0,0E0,0E0,0E0,0E0,0E0,0E0,0E0,0E0,0E0,0E0,0E0,0E0,0E0,0E0,0E0,0E0,0E0,0E0,0E0,0E0,0E0,0E0,0E0,0E0,0E0,0E0,0E0,0E0,0E0,0E0,0E0,0E0,0E0,0E0],"parents":[2147483647,0,0,1,1,2,2,3,3,4,4,5,5,6,6,7,7,8,8,9,9,10,10,11,11,12,12,13,13,14,14,15,15,16,16,17,17,18,18,19,19,20,20,21,21,22,22,23,23,24,24,25,25,26,26,27,27,28,28,29,29,30,30,31,31,32,32,33,33,34,34,35,35,36,36,37,37,38,38,39,39,40,40,41,41,42,42,44,44,46,46,47,47,48,48,50,50,51,51,52,52,53,53,54,54,55,55,57,57,58,58,59,59,60,60,61,61,62,62],"right_children":[2,4,6,8,10,12,14,16,18,20,22,24,26,28,30,32,34,36,38,40,42,44,46,48,50,52,54,56,58,60,62,64,66,68,70,72,74,76,78,80,82,84,86,-1,88,-1,90,92,94,-1,96,98,100,102,104,106,-1,108,110,112,114,116,118,-1,-1,-1,-1,-1,-1,-1,-1,-1,-1,-1,-1,-1,-1,-1,-1,-1,-1,-1,-1,-1,-1,-1,-1,-1,-1,-1,-1,-1,-1,-1,-1,-1,-1,-1,-1,-1,-1,-1,-1,-1,-1,-1,-1,-1,-1,-1,-1,-1,-1,-1,-1,-1,-1,-1,-1],"split_conditions":[6.4449626E-1,1.0151465E0,5.998677E-2,1.8812681E0,2.5737507E0,1.4E0,-1.1451739E0,4.404994E-1,1.3250008E2,1.2933959E3,1.3333334E0,-3.5555556E-1,5E-1,1.6744186E0,